191 100
to -0.039144684 0.04033531 0.0053320155 0.0378034 -0.03248205 0.015915025 0.0027242526 0.022426937 0.042340305 -0.04656888 -0.02247262 0.01669148 -0.012791444 0.044646237 -0.03496368 0.0059451237 -0.037356246 0.019349743 0.01949047 -0.0314947 -0.02778256 8.5342675e-05 0.024989057 0.019270983 0.028994646 -0.04928855 0.00842005 0.024281587 -0.020407712 0.025753144 -0.015601777 0.025229644 -0.014481485 -0.0018981919 -0.033427298 -0.01636206 0.024563733 -0.049810566 0.01687542 0.043334875 -0.0008443706 0.03639329 0.014705267 -0.04547484 0.014530648 0.004553985 0.021438453 -0.030290877 -0.002041269 -0.012675606 -0.047254026 -0.020244813 -0.04743675 0.0103379 0.040338363 -0.04408461 0.02154864 0.027826872 -0.033603657 -0.007056594 -0.003716994 -0.029455531 0.0027384758 -0.033722498 0.04029646 -0.04294182 -0.031933486 0.018091116 0.017282616 -0.033464633 0.02537391 0.040419843 -0.038214445 -0.029376972 -0.020875169 0.027746465 0.02208909 -0.02355938 0.020319413 -0.03958728 -0.031848565 0.044704232 -0.010834955 -0.012887251 -0.014397167 0.03631855 -0.015481304 -0.029084647 0.009010337 -0.044605434 -0.04954896 -0.032857575 0.02101675 -0.033516146 -0.028954912 0.013545755 0.02830341 0.0052516237 -0.017023873 0.002766084
is 0.042543445 -0.04666097 0.026605655 -0.037233017 0.04538702 0.0005086176 0.029534768 0.048798475 0.029964473 -0.039262164 -0.038076926 0.038295735 -0.010480501 0.047515158 0.04107361 0.011160564 -0.012054395 -0.041507162 -0.029302036 0.026308205 0.045267355 0.026029851 -0.0072456 -0.04290546 0.045864526 -0.013797961 -0.036354255 0.031527054 0.0005808845 -0.01434008 0.039778326 0.042325143 0.040123295 -0.03555745 0.011854183 -0.0044006594 -0.02959082 0.010192525 -0.038589586 0.0010450371 -0.0147480965 -0.02614894 -0.022446109 0.003164135 -0.037704755 0.033513967 0.047599945 -0.008689631 -0.029169334 -0.0019042008 0.041813124 0.0076695196 0.03845462 -0.042328417 0.023037326 -0.034967303 0.031108703 -0.03461324 0.026564527 -0.039446414 -0.027823007 -0.009318151 -0.027088558 0.040930104 -0.03742082 0.034452144 0.020102594 -0.027079511 -0.020651758 0.028771285 -0.036452353 -0.031885646 -0.0015697591 -0.0031811595 -0.04275465 -0.031958893 0.004413724 0.04385524 -0.0017501824 0.045792986 -0.04117782 0.014300894 0.0035323985 -0.009339415 0.00081545115 0.022654485 -0.014494598 -0.043402027 -0.009777546 0.012098931 -0.0062132254 0.044312846 0.040531527 0.047663797 -0.04308876 0.017732885 -0.030684758 0.036895763 0.026979338 -0.03455465
and -0.0126114115 0.009748697 -0.020192279 -0.0030907616 -0.014651895 -0.047107793 0.029171612 -0.04151807 -0.048872866 0.0010928623 -0.030283475 -0.020383883 0.0463838 -0.027822603 0.04064511 0.04137316 -0.02657113 -0.022282815 0.009494949 0.045512628 0.0302083 0.049579177 0.0005158298 -0.020345498 -0.015747715 -0.0033150092 -0.037798308 0.04640353 0.04172117 -0.047667887 -0.028505659 0.041111913 0.0336459 -0.026584102 -0.04351976 0.018271592 0.03722587 -0.040865444 -0.036069047 -0.044746518 0.014207017 0.04658283 -0.024084175 0.030224051 -0.01938144 -0.01602421 -0.012381185 -0.045201182 -0.046960045 0.030625198 0.01211381 0.014282633 -0.001060605 -0.043827485 -0.049256124 0.018665265 -0.034842335 -0.00279833 -0.016676925 -0.035527933 0.0026532412 -0.00046603754 0.032443415 -0.031226529 -0.047213554 -0.029748118 -0.003930103 -0.023182321 0.04906043 -0.011477221 -0.0034852996 0.005517386 0.044947457 0.00037000328 0.032972086 -0.039291285 0.010927141 0.045017127 0.00038307905 -0.028153706 0.0042279363 0.013148908 -0.017452337 -0.04634558 0.03320292 -0.04098483 -0.011895526 -0.026457155 -0.011465918 -0.040528953 0.04926843 0.03394183 0.043635968 -0.039025296 0.03532732 -0.04628017 -0.04995208 0.040164206 -0.020279897 -0.0034117587
the -0.026926696 -0.026374746 0.01937585 -0.043569304 0.04533804 -0.024798347 -0.013236009 -0.040819418 0.020920847 -0.047765385 0.028676543 0.0076458454 0.010722302 0.033243287 -0.039501715 0.004887581 -0.024331117 -0.006217815 -0.013181128 0.04401504 -0.0090307705 -0.04033506 0.02943829 -0.02104311 0.032854807 -0.024724578 0.026266906 0.014127184 -0.014786504 0.022251274 -0.03319156 0.003213562 0.022885982 -0.020118618 -0.029095698 0.025545571 -0.014122285 -0.010360859 0.021722902 -0.041950762 -0.04540472 0.009885203 -0.021011163 0.03998835 -0.04353906 -0.039421715 -0.024740076 -0.0009660609 0.029801633 0.04582007 -0.024939692 0.009488858 0.010282375 -0.031223416 -0.009690989 0.045306984 0.020498756 0.0071912035 0.031573597 -0.02043556 -0.011171721 -0.0067652576 -0.012721587 0.00022060797 0.01161021 0.024075795 -0.032493673 -0.0191458 0.026846442 -0.011398733 0.036476616 -0.0066161864 -0.036136843 -0.0062955245 -0.016336847 0.012201667 0.042078424 -0.01533841 -0.021717345 -0.020745743 0.026250843 0.038644027 0.014263462 0.040230144 -0.033102825 0.030000415 0.03807104 -0.005183745 -0.031963088 -0.030957842 0.013801601 -0.016339134 0.036251042 -0.046006467 0.012182571 -0.030401016 -0.02428124 0.044545595 -0.045743193 -0.021450317
in 0.04229326 0.047334705 -0.019351482 -0.022734035 0.032052983 -0.014281929 0.03836072 0.046548534 -0.02774446 -0.0027640238 0.018998634 -0.045721747 0.008788966 0.045615006 -0.029016329 0.022738341 0.036950435 -0.044294216 0.015202913 -0.022129465 -0.02230506 -0.044142734 -0.024068905 -0.019218339 -0.029815627 0.009631909 -0.022334386 -0.012287043 0.0484964 0.027331982 0.010199558 0.044567976 0.034780156 -0.031591013 -0.005512655 -0.003835179 -0.04191493 0.022355232 0.0108764395 0.00619632 0.043652866 0.003212668 -0.033799075 -0.035300277 0.034643356 -0.013547968 -0.032147482 0.027877297 0.0117077455 -0.041146837 -0.034095217 0.00091922283 -0.031826913 -0.015387379 -0.047437705 -0.017650854 0.023400549 -0.04140371 0.042460058 0.033750724 0.040986005 0.037203874 0.006504379 -0.0050535686 -0.01252681 -0.033544794 -0.012733351 0.010710966 0.003296245 -0.019283652 0.011501193 0.035738077 0.031505693 0.03661764 -0.049923744 -0.040543355 0.031465556 0.026321921 0.004749693 -0.017629445 -0.013550032 -0.029370654 0.028602932 0.04976717 0.025752317 -0.00052330643 0.03462595 0.029758204 -0.005929373 0.048156414 0.0048837774 0.014137376 -0.019267965 0.023333598 0.029577915 0.036787536 0.009878624 -0.0022110231 -0.016592156 0.018447887
a -0.0011546724 0.038557436 -0.020169783 0.027922813 0.014991675 0.01887231 -0.024828244 -0.027708126 0.021412443 -0.04035244 0.031189468 -0.006741464 -0.045301545 -0.048407186 -0.012789667 0.003413558 0.004098177 0.043091346 0.017884877 -0.04563266 0.0064254627 -0.04176923 0.003876377 -0.0370679 0.037939224 -0.028347481 -0.014158536 0.02604023 0.019148696 -0.026548518 -0.0091565475 0.0009581819 0.013343964 0.011271786 -0.016865812 0.03145646 -0.002446808 0.03634009 0.03995576 0.027506236 -0.0357383 -0.010606002 0.006429076 -0.048569977 0.03666507 0.003712535 0.046330083 0.010224331 -0.047617983 0.0013689883 -0.04253006 -0.02272364 -0.040319253 0.037463214 -0.031189812 0.024291825 0.043229762 0.049975995 -0.045288097 -0.029473234 -0.031054689 -0.003874611 0.008834183 0.04996102 -0.037332643 0.00031574816 0.036964122 0.038268182 0.014626924 0.03265344 -0.039487682 -0.022391712 -0.0011283532 -0.047156002 -0.03079226 0.0329487 -0.014820911 0.016285013 0.012793157 0.029240135 -0.03700497 -0.041255284 0.0007726662 0.010099471 0.02981447 0.034142558 -0.008597206 -0.0008916259 -0.030215848 0.004504692 0.0017085671 -0.04961386 0.040065017 0.048675742 -0.01630342 0.03498793 -0.008979261 0.012054898 -0.013042878 -0.031751692
it 0.01273657 0.037383307 -0.022263324 -0.043764044 -0.03060546 0.043615427 0.017972205 -0.009983528 0.0001109615 -0.003341686 -0.030813862 -0.015340578 -0.03204459 0.016828287 -0.03637873 -0.03841456 0.013906289 -0.018450141 -0.008915078 -0.01740544 0.024850871 -0.003929008 0.00058192015 -0.022558486 -0.021025384 0.046068314 -0.031134808 0.049603675 0.034244645 -0.038591124 -0.021718884 0.014463555 -0.03837619 -0.022558082 0.03899758 0.0035716072 -0.023894524 -0.033836626 -0.0011472926 -0.017660927 0.015403423 -0.036807038 -0.020655155 -0.04520091 0.011457466 -0.041702427 0.034674887 -0.04593798 0.009787463 0.017329227 0.03839839 0.040873114 0.04259005 -0.037275244 0.010777175 -0.01829927 0.042947043 -0.014105536 -0.003714718 -0.02028693 0.045309212 0.03126121 0.010586631 0.034998585 -0.0108533725 -0.02405194 0.049415562 -0.029583646 0.030866686 0.022442404 0.009288799 0.04472209 -0.039120555 -0.0057253353 0.03415442 0.042774748 0.040587235 0.027211133 0.0151707195 0.017115306 -0.037350226 -0.01340412 -0.016726136 0.007046867 0.036611546 -0.011795271 0.017422032 0.049033795 0.023552861 0.030549835 0.03514025 0.036845353 -0.020651747 0.030733157 -0.009298228 0.030823443 0.0126842 0.03283738 0.018207643 0.038545024
we 0.032373536 0.0071674697 0.036154483 -0.009870756 -0.0010940321 -0.013092171 0.041574445 0.027626995 -0.012736797 0.032823455 -0.04182439 -0.018102657 -0.020576132 0.00024626404 -0.017730068 0.0031309836 -0.029935002 -0.01780983 -0.03925415 -0.048463132 0.0036058202 -0.04595847 -0.020745778 0.03756127 -0.002143167 -0.048097588 -0.0035481341 0.015544977 -0.047255576 0.013348889 -0.028871978 0.016183559 0.013696317 -0.031151295 0.04704796 0.048457097 0.014959086 0.016631495 -0.044174373 -0.03629757 0.001586806 0.025092963 0.047569606 0.044593323 0.039861266 -0.024802256 0.009877134 0.020862136 0.002655387 -0.043037485 0.027147476 0.019188646 -0.01976577 0.03642113 0.041832816 -0.020163655 0.043909136 -0.037343763 0.011957906 0.045342747 -0.030029345 0.037882235 0.021226075 -0.012236644 -0.010704733 -0.025294114 0.04834627 0.044117246 -0.019552147 0.04107106 -0.00031776354 0.027001787 -0.021319676 0.003718365 0.016630534 0.0048192367 0.009299122 0.031995665 0.04414502 -0.01389109 0.00066430494 -0.020054733 -0.041767977 0.023009408 0.03404938 0.01358043 -0.015523635 -0.040693127 0.049348567 0.0016655214 -0.009046994 0.049594965 -0.01031059 0.031413782 -0.02766024 -0.03437104 0.025177065 -0.03319987 -0.0053987876 -0.020712687
you -0.0194273 0.014633622 0.033927765 0.0481059 -0.023630464 -0.02157011 -0.017440606 0.030876186 -0.02214471 0.007740356 0.024213802 0.03290615 -0.037289668 -0.0238832 -0.049234677 0.039492633 0.008734334 0.04091027 0.042846236 0.00047804043 -0.020126808 -0.032314397 -0.018628478 -0.0012305491 0.013260756 -0.0012343302 -0.043466795 -0.0058664307 0.01632775 -0.03203981 -0.0011648647 -0.0019131079 0.021102894 -0.032347716 0.004519094 -0.031726122 -0.024806643 0.038882207 0.024526779 0.011186004 0.012834754 0.037901234 -0.013564408 -0.005046904 0.036061753 -0.03846935 0.02664585 -0.013364397 0.015184607 0.047621023 -0.034873296 -0.0347685 0.0021631494 -0.029041482 0.047935035 -0.019370114 -0.0010842085 -0.025220586 0.027113106 -0.03601135 0.008547414 0.0055189505 -0.019212736 -0.02545532 -0.033620358 0.0042351596 0.029145624 0.015515897 -0.009695508 -0.024204398 -0.02387246 -0.032304503 0.02438635 -0.032611966 0.019363586 0.023594882 0.03863955 -0.047817256 0.033320937 0.001057364 0.038531948 -0.010657646 -0.00821501 -0.00086225197 0.032712255 0.027400795 0.01875205 -0.0349581 -0.01189705 0.016774584 0.049695466 0.035377588 0.03720213 0.02516706 -0.016505517 -0.016139854 0.02307861 -0.011773039 -0.0052866116 -0.034172438
of 0.024467777 0.013481785 0.027497437 -0.028121328 0.021518935 0.042504977 0.010133218 0.004153192 -0.012929808 0.03846414 -0.043499112 -0.0045075305 -0.040829517 -0.010567248 0.023299966 0.008527875 -0.045435667 0.04693668 -0.016697623 -0.016013395 0.019438151 0.01115166 0.0098973885 0.02614497 -0.040613342 0.046909396 -0.03966074 -0.016407836 0.02494141 -0.0016852021 -0.0051617995 0.03845643 0.0054461733 0.004683353 0.03320006 -0.047286857 0.042980205 -0.0064620487 -0.021299792 0.049526814 -0.023058021 0.022591125 0.037745688 0.0398899 0.0020790584 -0.046780597 0.046416905 0.030347433 0.0430629 0.016914371 -0.017986573 -0.029066121 0.040580843 -0.025697125 0.027136434 -0.007461142 -0.0044985414 -0.044164587 -0.020325601 0.0029489286 0.027201865 -0.03113308 -0.03394686 -0.0017266273 -0.016896762 -0.029987479 -0.0108219385 -0.0140991695 0.042635385 0.0020450354 0.027530637 -0.02404722 -0.009552084 -0.0028580911 -0.033102177 0.0010220632 -0.038264465 -0.04714152 0.026548732 0.031489696 0.049671914 -0.03770007 0.030767445 -0.024090469 -0.030994236 -0.0027658455 0.025452282 -0.029244447 -0.001919508 0.038163472 0.008679736 0.014321033 -0.034981646 0.044955943 0.0065206513 0.04674648 0.025850322 -0.0015855916 0.04755031 0.020949725
be -0.0010184869 0.025535252 -0.04216211 -0.048043728 -0.03233979 -0.046332993 -0.013162456 0.00687059 0.020711612 0.0041772947 -0.041442145 -0.03180145 0.0029152855 -0.0018988624 0.019326482 -0.006598495 0.044318724 0.03289408 -0.029218495 0.03785271 -0.004639555 0.038281832 0.02818067 -0.033226717 -0.020687843 0.008179523 -0.018700253 -0.0034360886 -0.03197806 -0.04821167 -0.04992534 -0.0298998 -0.0060487874 -0.021277834 -0.026888145 -0.004951488 -0.012277782 -0.011682011 -0.016204238 0.0062121637 -0.010737658 -0.0028352514 -0.044544496 -0.023796141 0.0010511763 0.020534668 0.030429889 -0.029223967 0.024901282 -0.0033208504 -0.04214277 -0.028363192 0.004193295 -0.014978327 -0.012150299 -0.040654767 -0.021262193 0.009998988 -0.047622155 0.009369243 0.0034137592 -0.027852012 0.049928416 -0.0056976452 -0.009717248 0.026344243 -0.04770992 -0.049094416 0.026842926 0.024891619 0.04746929 -0.021831667 0.013280537 -0.037677325 0.00029742718 -0.03670411 0.02689794 0.04264084 -0.0042686574 0.0042249076 0.031341363 0.027976718 -0.008868229 -0.005843304 -0.02290069 0.017657291 0.003891468 -0.01733911 -0.04700451 0.020220373 0.013546597 -0.02548157 -0.024801636 -0.009631835 -0.021161485 -0.0012630336 0.030651417 -0.039373267 -0.0017389432 -0.024939014
from -0.046521213 -0.019273687 0.032393005 0.04013199 0.012300529 -0.041888677 -0.039629746 -0.029419888 -0.018660795 0.015517984 -0.02411288 -0.04179337 -0.028271068 0.0026483424 -0.025325501 0.045862738 -0.049726557 0.012239434 -0.005320944 -0.043388378 -0.03866384 -0.020699192 -0.022560729 0.006947957 -0.011722088 -0.0023071282 0.0007869229 -0.008272707 -0.04133501 0.022704888 0.012857292 -0.008151103 -0.03724873 -0.044968702 -0.04547602 -0.01563903 -0.031967893 -0.028359413 0.030833017 0.044441584 0.046136726 -0.04756366 0.012789097 0.039785217 -0.048178315 -0.015085172 -0.0009590164 0.030714635 0.03900602 0.037743103 0.047096375 0.02525476 0.028424624 0.016432729 0.020493362 -0.02508694 -0.012583077 -0.0152953155 0.0032402985 0.028731775 0.009384323 -0.022148157 -0.013755847 -0.013497341 0.012512628 -0.018527973 -0.03308033 -0.019217456 -0.027729357 0.0077287443 0.047524277 -0.006223999 -0.044555783 -0.010056555 0.041533265 0.013143431 0.014440205 0.04392482 -0.031954706 -0.0024168864 -0.02237208 -0.0057313666 0.028228786 -0.033210494 0.01927812 -0.00897225 0.026303861 -0.03430289 0.02522469 -0.031961966 0.0020733848 -0.041547954 -0.027531017 -0.017143954 0.020568896 0.032117072 -0.002641786 0.012088466 0.040761802 -0.018047988
have -0.046194937 0.029437032 -0.023867846 -0.011567153 -0.02439673 -0.04062737 0.004437696 0.020921241 0.02977239 -0.048964586 -0.028986251 -0.022383321 -0.029731084 0.007696498 0.010301568 0.048854638 -0.012812186 -0.015293993 0.0028190836 -0.022795165 -0.038419258 -0.025396705 0.014630113 -0.003732849 -0.039494026 0.020941008 0.043839816 -0.036778353 0.019591663 -0.025280286 0.026257586 -0.011606954 0.005574178 0.044612717 0.015044045 0.03771783 -0.018269658 -0.01735618 0.024510156 -0.049436796 -0.00092058256 -0.022068262 -0.043612745 0.028750826 -0.040819786 -0.029485857 -0.043435216 -0.003785111 -0.02009598 0.012292348 0.027406003 -0.04169468 -0.030825127 0.04595791 -0.043109883 -0.032536484 -0.010635674 0.010373332 -0.024119174 -0.03834634 -0.033484675 -0.00064424425 0.0035083406 0.025020551 -0.01747521 -0.046074796 0.009302281 0.00055543333 -0.04262271 -0.017572153 -0.040623583 -0.034201697 0.042219948 -0.017176367 0.025165286 -0.01123967 0.02450769 -0.0495713 0.04451659 -0.029511785 -0.039279222 0.04275007 -0.024305344 -0.034482814 -0.023334682 -0.001324676 0.046213556 0.037305687 0.042972755 0.042631935 0.0064117536 -0.014962435 0.016628075 -0.021212412 -0.008768834 -0.04088516 0.032300357 0.026812855 -0.04177729 -0.025897503
i 0.042513598 0.044306044 -0.034258083 0.03737152 0.01179564 0.008195341 -0.049158372 0.047795225 -0.04739212 -0.006572522 0.007818781 -0.006209206 -0.04232199 0.01563083 -0.001137577 -0.03320525 0.01314101 -0.002374269 0.041069474 -0.039188933 -0.027969062 0.0044826977 0.04216708 -0.031757355 0.024119321 0.0448311 -0.0050247535 0.039595295 -0.010665439 -0.049562633 -0.047142863 0.020608451 0.006405782 0.048360292 0.039241303 -0.026220953 0.0021955147 0.023129772 -0.006439984 -0.035838686 0.006486319 -0.008713413 0.018456522 0.029540192 0.011022173 -0.022289753 0.036182526 -0.023081398 0.014394049 0.032483425 -0.014143586 0.04727265 -0.024735082 -0.008696221 -0.012537561 -0.015333593 -0.02527125 -0.037863087 0.022429202 0.03234798 0.023713257 0.029557709 -0.049162377 0.016388807 0.019278947 -0.0071227923 0.03360403 -0.025180936 -0.014077581 0.021471534 0.040414307 -0.008127071 -0.021209741 -0.0027475841 -0.006585695 0.0018371567 0.0025591142 0.03106575 -0.042505253 0.0077643283 -0.016514279 -0.0117740035 0.014216412 0.03560141 0.027793203 -0.029838992 -0.032611728 0.0326656 0.007319797 0.019153584 -0.019282555 0.008739959 0.031768147 0.002696313 0.023620214 -0.022992397 -0.0020341054 0.00012080744 -0.047610175 0.017013598
n -0.021321643 -0.0066549294 -0.03706051 0.030012224 -0.016822636 -0.044543456 0.029103767 0.03952888 0.019650165 -0.015729941 -0.029219568 0.015667725 -0.020336866 0.04800817 -0.030137813 -0.011499368 0.030608121 0.033347216 -0.004151594 0.040883448 0.03203169 -0.0001752004 -0.024781227 -0.02618121 -0.023811936 -0.0050235763 0.015417103 -0.0062090866 0.041840028 0.009200703 -0.049760174 0.0035182126 0.033729125 -0.0034569874 -0.017459571 -0.012802195 0.033863176 0.012241639 0.032862987 0.033796106 0.0046528205 0.022363666 0.007894993 0.043207016 0.048727285 0.021051694 0.018810336 -0.04686991 0.006794773 0.02254248 -0.042908397 -0.029771997 -0.03032868 -0.029967522 0.045773875 -0.015521407 0.040372837 0.026275244 -0.020054234 0.014915716 -0.007984638 -0.031511366 0.048459653 0.045049142 -0.031250536 0.0444918 0.028008554 0.031556692 -0.006786905 0.010309685 0.0074321255 -0.035928883 0.021024529 0.016606595 0.041260745 0.031824533 -0.030888332 0.00883932 0.008863486 0.008232079 0.022956494 0.047269095 -0.048148394 0.0016394146 0.03459159 -0.0038307533 0.033574294 0.002198957 -0.034285367 0.048511352 0.026640784 -0.013120212 0.03821299 0.00096876547 -0.00020318106 0.010148503 0.0028861053 0.045053627 -0.011939026 -0.025028372
out 0.047468293 -0.02784965 0.027743015 -0.046417534 0.041798998 0.027256314 -0.04250486 0.0015601031 -0.039473366 0.034638334 -0.029654456 -0.017926253 0.02958 0.038595486 -0.014638949 0.037130978 0.03595281 -0.047911417 -0.031994008 -0.038637675 0.019651119 0.013551008 -0.027446771 -0.008387089 0.033843447 0.040427987 -0.0063053966 0.04235104 0.021335352 0.00015523285 -0.04668578 -0.046555735 -0.029560829 -0.025562322 0.03512578 -0.009400286 0.00068763644 -0.010925569 0.0042911656 -0.037585426 -0.04723257 0.03506435 -0.016482353 -0.021325683 -0.028043319 -0.0032581687 -0.04976213 -0.03867521 0.04990906 -0.006886076 0.012644973 0.011540569 0.04676271 -0.02217183 0.020998266 0.026004802 0.02508669 0.04621655 -0.0043950193 -0.032348383 0.04919753 0.0061755404 0.026868526 -0.041960217 0.006702684 0.00372554 0.019076083 0.035193715 -0.047323573 -0.018183328 0.042564835 -0.024694264 -0.0051369295 -0.0150793195 0.042053107 0.014478985 -0.028612722 -0.03032118 0.026645314 -0.009578537 -0.03457303 -0.0075311884 -0.024276352 0.028537061 -0.023542965 0.016575884 -0.031057501 -0.049867857 0.0026938692 -0.022741128 0.0316409 -0.028162885 -4.6379864e-06 -0.021913959 -0.01171862 -0.0013048053 -0.041803658 0.034130108 -0.037338994 -0.039539777
way 0.021673035 -0.01899526 -0.03172754 -0.027670681 0.024014208 -0.04436804 -0.010664679 -0.00065212324 -0.014288079 -0.0074472427 0.015147898 -0.042426076 -0.021452202 -0.007358633 -0.033156216 -0.022925723 0.019628968 0.040307175 -0.012629449 0.019914065 0.010536313 0.044576634 -0.007943414 -0.015448749 -0.0055850036 0.03643911 0.016572606 0.010067999 0.033858385 0.04988784 -0.037683822 0.03145835 -0.033827413 -0.017681789 0.04707882 0.025132421 0.01573043 0.039198626 0.04054452 -0.040133525 -0.02112031 -0.008402348 0.03612541 -0.035654914 -0.042592682 -0.020091379 0.0042511933 0.02455772 0.026283097 0.035099152 -0.0030854829 0.009708583 -0.017553724 -0.0032927282 -0.026455617 0.021624971 -0.027767707 -0.016573537 -0.04611367 0.004251875 0.04008304 -0.017491769 0.009340547 -0.027276611 0.035393406 -0.034687627 -0.019162273 -0.047567762 0.042320672 -0.032979 0.0142969005 0.030379761 0.028653275 -0.017395653 0.024236504 0.0002441518 -0.022523725 0.014715005 0.00079756975 0.040987384 -0.044242095 0.029418115 -0.024362577 -0.038840424 -0.023791099 -0.03733299 0.032918226 0.020280112 -0.045808233 0.0050984845 -0.038253687 -0.020254767 -0.0210922 -0.034454264 0.004212629 -0.034011498 -0.00640155 -0.00084389374 -0.036935437 0.013373051
for -0.020780874 -0.009228002 -0.015395522 0.011508774 -0.018141855 0.03146032 0.024385024 0.02068552 -0.043667316 -0.036285676 -0.038840186 -0.015659548 -0.035197902 -0.04976189 0.017817471 -0.0077066906 0.010862291 0.048290644 -0.043557025 -0.0025199652 -0.014976036 -0.008649122 -0.03859224 0.044346895 0.04603981 -0.017999519 0.019087348 -0.022442019 -0.034646787 -0.006433796 -0.049845863 -0.016138744 -0.0062642917 0.008199584 0.018748317 0.043514203 0.014349569 0.03614228 -0.011527348 -0.034484424 0.0003669858 0.018357959 0.029318761 -0.011838399 -0.03701184 -0.026512075 0.017245818 -0.045037486 0.017116252 -0.028867006 -0.042274274 0.03740174 0.005442906 0.01597238 0.019117419 0.011112582 -0.0072224624 -0.013266254 -0.042394113 -0.016821563 -0.032500505 -0.028759813 -0.044326257 -0.03645269 -0.02655126 0.03893328 0.030740764 0.019632544 -0.04675858 0.008434318 0.011606514 0.033574436 -0.024768699 -0.036224257 -0.026747381 0.040350977 0.041081402 -0.020986212 -0.0497051 -0.042420235 -0.026029145 -0.023980534 -0.033944476 0.009397112 0.021929 -0.02751485 0.018358503 -0.048267044 -0.011709046 0.005434621 0.017352808 -0.013916384 0.012841847 0.0033027418 -0.03677533 -0.006248843 -0.040995587 0.030777123 0.011737406 0.03475299
classes 0.013326991 -0.04030671 -0.015448071 -0.02021414 -0.048455954 -0.03608904 -0.033315957 0.04761466 0.049967375 0.0173749 0.016404156 0.033419397 0.011569418 -0.033633746 -0.020266045 0.04982504 0.022803497 -0.03774972 -0.016135812 -0.041190825 -0.047235575 -0.0026949272 -0.014439441 -0.015913915 0.045127604 0.028807092 0.005995728 0.030112933 -0.01032586 -0.03709637 -0.0010505095 0.028346453 0.009300817 0.043172847 -0.019847263 -0.012349188 0.015343439 -0.008450389 0.041527484 -0.008937705 0.040015828 0.03654175 0.0094160065 -0.02579142 -0.011139236 -0.0154729 0.019779313 0.0008899346 -0.042355385 0.01691905 0.01368374 0.006640006 -0.031258702 0.038228538 0.02273221 -0.016805626 -0.010264553 0.012133934 0.039334323 0.029137623 -0.02604543 -0.01596447 0.0326409 0.015610013 -0.022874463 -0.02087586 0.03650612 -0.021807075 0.0035171509 -0.043258667 0.038078036 0.031800035 -0.033059254 -0.02180686 -0.028623475 0.027961884 -0.019013776 0.028201606 -0.029663717 0.043118965 0.034893047 0.03954942 -0.010974683 -0.0019576661 0.006824542 -0.03962616 -0.02241869 -0.0027717948 0.009105802 0.048738312 0.04390173 0.04215919 0.049652945 0.04166657 0.043359626 0.035036776 0.009972621 -0.03193529 0.00074576214 -0.048150897
his 0.0003674738 -0.028933227 -0.031741098 -0.04060044 -0.029941237 -0.040546667 0.02015284 -0.030864572 0.002304662 -0.0054771304 -0.017268859 -0.017153312 0.026343714 -0.008384347 0.026863385 -0.010200679 -0.011911668 0.023989324 0.0009613037 0.014325548 0.02854829 -0.033571303 0.040867094 -0.022160757 0.028737161 0.032846835 0.045723666 0.01546235 -0.0118488185 0.027197015 -0.04516392 0.03834429 -0.03535949 -0.017060388 0.018876363 -0.044315077 0.011122752 -0.036291026 0.012698937 -0.029654909 -0.0020096526 0.043566395 -0.019348204 0.011942338 0.04438499 -0.03299866 0.04892898 0.040828515 -0.009418678 0.01133262 -0.0130141005 0.011887692 -0.046356834 0.017201249 0.049234334 -0.03518752 -0.009659372 0.030065466 -0.034119166 -0.025314117 -0.02542305 -0.040910255 -0.018138755 0.0015392527 0.034279477 -0.022324204 0.04029968 -0.018275965 0.01007092 0.024795953 -0.048093118 -0.014547873 0.047354225 0.022153046 0.020324592 -0.008162834 0.021475982 0.040916335 0.018279944 0.03389347 -0.040475823 -0.0105605945 -0.025044238 0.043824505 0.048087824 -0.041454434 -0.0025028586 -0.0051767826 -0.02338382 0.02794775 -0.030980444 0.039976392 -0.02851863 -0.027505577 0.04454874 0.015033115 0.037249897 0.0069497228 0.014711384 0.049945388
just 0.040290806 0.002771221 -0.042825043 -0.0084268935 0.010366477 -0.024588143 0.03619169 -0.048178554 0.0068485625 -0.01753832 0.008037258 0.0025234818 0.020883646 -0.030929554 0.034410205 -0.011066068 -0.015616167 -0.022354234 -0.041303776 -0.018386137 0.04483309 -0.02967589 0.044099893 -0.008540619 0.03504101 0.008701157 -0.018289603 0.038781453 0.031579103 0.0105884075 -0.023282921 -0.049317993 -0.035087835 -0.01969117 0.0091725215 -0.01840029 -0.024807906 -0.03240446 -0.04804672 0.014700722 -0.04230969 -0.037084244 -0.011673234 0.04743642 0.040830377 -0.04058378 -0.011063445 -0.0050653927 -0.005668126 0.008349955 0.007619869 0.03352863 0.012183107 0.016361762 0.038934056 -0.019044816 0.0017261021 0.047275398 0.037763927 -0.030694747 0.048888896 0.023929726 -0.022793591 -0.024951875 0.014103662 0.004206039 -0.017046262 -0.04196458 0.02765235 0.015830163 0.030264761 0.031019773 0.036510322 -0.03821981 -0.00969572 0.039598595 0.008221962 -0.021728301 -0.025343467 -0.03257885 -0.025559247 0.04637566 0.0407458 0.047474597 -0.023489762 0.019387577 -0.03340906 0.0013520941 -0.042283263 0.026746336 -0.04880997 0.047209624 0.015801143 -0.026854193 -0.004405044 0.018107127 -0.02678199 -0.029107261 -0.043795336 0.0068095103
because -0.033148933 -0.0062771216 -0.0071733594 -0.018048167 0.010299027 0.04904529 -0.013710033 0.003307484 -0.034020424 0.049894225 -0.017686654 0.033220533 -0.049209904 0.012927029 -0.033418108 -0.029577827 0.023633767 0.03714018 0.021936212 -0.011662699 0.0040363073 -0.034142397 0.035050582 -0.018718075 0.009620022 -0.008117355 -0.024672782 0.013900053 0.044275496 0.014068577 -0.03421863 -0.009958457 -0.034655917 -0.0007110946 -0.046803784 -0.044685233 0.016263496 0.016896334 -0.01782912 -0.01350553 -0.010688353 0.031056833 -0.01025207 -0.03670181 -0.0009783022 -0.01950314 -0.048932552 0.034732495 0.017784905 -0.027111089 -0.024080431 0.040381957 -0.018811895 0.04988951 0.013892237 -0.0073239096 -0.049992274 0.04023594 -0.036555447 -0.013208497 0.0214368 0.017382752 0.018520977 -0.010290671 0.008871246 -0.032067835 -0.027949357 0.005604077 -0.036821175 0.017362926 0.023596834 0.04283345 -0.031086314 0.039868895 0.04773705 -0.013299357 -0.046972573 -0.019055082 0.008607853 0.046066906 0.014918778 -0.020468129 -0.02530731 -0.031604186 0.006257523 0.04010794 0.017511059 0.043658648 0.012669671 0.030636404 -0.04984286 -0.011733841 -0.01894318 -0.021688903 -0.024918556 -0.0275705 -0.008095242 -0.011331655 0.049638297 0.031942155
like -0.04322524 0.014605295 -0.014113165 0.018148985 0.045996595 0.049098086 -0.039239775 0.034738604 0.04938117 0.020609144 0.03324921 0.019526813 -0.029142214 -0.035695396 -0.0030220263 0.018236768 0.01629709 0.03625803 0.03507718 0.006438542 0.002083458 -0.022721255 0.01884124 0.014769781 -0.013104774 -0.040266015 -0.03950534 0.04296701 0.011811316 0.0005428195 -0.04221486 0.024888922 -0.0017459281 0.0044757947 0.003579963 -0.049144756 -0.0009815581 -0.049450673 0.040964637 0.032930914 0.044910375 -0.030996133 0.016519476 -0.025364626 -0.008290421 -0.04037732 0.020505417 -0.049488377 0.014500026 0.02698655 0.01992866 -0.023564458 0.02927078 0.045481313 0.013495099 0.0370978 -0.020610904 0.03549547 0.017608974 -0.013511062 -0.005311679 0.010583531 -0.027928865 -0.030886305 0.029219273 0.028591346 -0.013332892 0.040797565 0.008842051 -0.00032912567 0.04822815 -0.015851665 -0.015535582 -0.014044654 -0.014228117 -0.04531572 -0.0052471384 -0.008709669 0.04976726 -0.0065628067 0.019303564 -0.028057171 0.04551598 0.0003289953 0.047077242 0.011344302 -0.021016432 0.046812955 -0.0070045963 0.035805676 -0.017799508 -0.0094743855 -0.03987988 0.022096906 -0.0037640445 -0.041464888 -0.03761357 -0.008967005 0.046768095 0.028881658
had 0.016446445 -0.048403062 -0.012899112 0.032982577 0.03076874 -0.004564859 0.0024865158 -0.029080702 0.013011638 -0.0077676773 0.009517074 -0.03603264 -0.020848025 0.037777293 -0.035383295 0.03288089 -0.013019908 -0.00051127747 0.021063749 -0.033242166 -0.01537881 -0.016630102 0.032672193 0.04743005 -0.018521644 0.013473693 -0.002808988 -0.0011632219 0.027058866 -0.010549046 -0.027318954 0.02857827 -0.016457152 -0.0013418198 -0.023743331 -0.01861732 0.019151237 0.0018932931 0.025838558 -0.0030986182 -0.0090764165 -0.0014287718 -0.048655417 0.025205087 0.03409623 0.0055358037 0.021983232 0.03480116 0.040743556 -0.032573104 0.03571901 0.015013505 0.044921074 -0.046254206 0.024526369 -0.03815793 -0.039225854 -0.025744176 -0.03106228 0.002690792 0.031214032 0.017138872 0.00087857246 0.02199303 0.04968289 -0.025089348 -0.016384888 -0.048415482 0.035524283 -0.030705249 -0.015142906 -0.014034342 -0.021279646 0.03250594 0.04510725 -0.04683539 -0.010362349 0.041373525 -0.03261985 0.048125807 0.03231633 -0.0027906299 -0.01958759 0.041123424 -0.041936804 -0.016681157 0.042193722 0.002238024 0.029331375 0.018770326 -0.021240925 -0.0139583945 -0.044181634 0.02732331 0.01011486 -0.011195861 -0.019472266 -0.0032539256 -0.03226626 0.031622592
but -0.043399155 -0.027509153 -0.04612372 0.01749586 -0.01286925 0.01700345 -0.043803226 0.0002382882 0.016709115 -0.008435059 -0.020445896 -0.0055899248 0.04852959 -0.018926037 0.0154363625 -0.029304266 -0.041575693 -0.00039037317 -0.033881858 0.01776148 0.018743526 0.02849609 0.015088592 -0.0023877248 0.0138737075 0.02593172 -0.025007105 -0.014683209 -0.040030718 -0.0405743 -0.008818887 0.014191631 0.0068660006 -0.005733274 -0.028802192 0.040235486 -0.017380297 0.047571708 -0.040000428 -0.03054508 0.010400057 0.033364583 -0.025794124 -0.034522794 0.03166381 -0.03245603 0.0032688975 -0.020331299 0.02699155 -0.032284975 0.0015705451 0.010553468 0.04268023 -0.01560707 -0.04461546 0.0012015477 -0.048783053 0.049523387 -0.02452581 0.015051249 0.011534762 -0.016768575 -0.048027564 0.034629513 0.049170684 -0.00031910092 0.014095668 -0.0020530336 -0.04572871 0.029142473 -0.00538652 0.042369414 0.015128862 0.028713334 -0.0151591785 -0.026407445 -0.031286348 0.0074305646 0.032325935 0.014954869 0.036903407 0.011448931 -0.0057240613 0.035572913 0.017594878 -0.007868685 -0.020462155 0.036785807 -0.04469365 -0.0035175458 -0.021959579 0.0142386 0.040824417 -0.032992914 -0.04479854 0.0424258 -0.018535934 -0.034281112 -0.049698543 0.024610508
very -0.0369068 0.006789349 -0.0498883 0.036443714 -0.037656404 0.03680731 -0.04536147 0.008341871 0.04373846 -0.045010637 -0.011441719 0.02116758 -0.036021292 -0.030287398 0.026533935 -0.037642967 -0.03970026 0.03039204 -0.0120481625 -0.02177596 -0.0478935 -0.019182384 -0.04353274 0.04935136 -0.016422462 0.040140335 0.010463096 0.040101457 0.032664243 0.04499754 -0.007417977 0.036824677 -0.005962372 -0.015386902 -0.02082832 0.02892274 0.03607792 0.040295746 -0.03466954 -0.035473205 0.00090090185 0.005095221 0.030798364 -0.011116207 -0.027810825 -0.032282997 0.037842724 0.017112184 -0.020354604 -0.0061418787 0.03507563 -0.047924817 -0.021069705 0.012891997 -0.022966314 0.039394785 0.0063989274 0.016893972 -0.029047465 0.03526355 -0.00017938763 -0.016111374 -0.045242347 -0.046398092 -0.018091954 0.040960673 0.037141588 0.027182747 0.047698285 -0.0141498335 0.035771552 -0.0074926727 -0.0102802515 0.045011748 0.011130869 -0.031091237 -0.017903853 -0.018260993 0.017428998 0.0467231 0.02101345 -0.024096156 -0.0083457455 -0.023549749 0.02231652 -0.014311932 -0.03354062 0.039441917 0.011305235 0.040264215 -0.009693135 -0.0015698187 0.024108086 0.045645956 0.024099018 -0.036171876 0.037363324 0.022177923 -0.019408846 -0.028391922
long 0.029148702 0.013920847 0.022411253 0.024717499 -0.015058804 -0.025830746 0.028522167 0.034038153 -0.022313202 -0.03272741 0.0005012378 0.014501128 0.034826245 0.021846686 0.037589315 -0.041997053 0.03881878 0.0011468418 -0.039972354 0.026188042 0.019711088 -0.047080792 -0.023768758 -0.026567042 0.013717387 -0.03412725 0.030497741 -0.03134562 0.0116631985 0.012336541 0.046507847 -0.043806028 0.0016806349 0.024831306 0.03321064 0.043983225 0.00066436455 0.03572991 -0.024324084 -0.008190177 -0.013215758 -0.046154965 0.008143149 -0.04878825 -0.017983962 0.023583699 0.04518601 -0.010876574 -0.046823382 0.047832575 -0.02096262 0.03373376 -4.5120716e-05 0.0033411756 0.048712227 -0.029809762 0.012756016 0.026635949 -0.047724035 -0.030550553 0.018431697 -0.027698113 0.023151759 -0.02881862 0.021862034 -0.024004495 -0.004243292 -0.03423351 -0.029598534 -0.042402852 -0.018856693 -0.0029363036 0.04108138 0.03797039 -0.042579114 -0.015957486 -0.04736352 -0.006948959 0.04261097 -0.016752101 0.04726999 -0.0166139 0.013464045 0.002662968 0.042073872 0.0362419 -0.04750395 0.012434363 0.049315754 0.04963905 -0.048025955 -0.045752503 0.01095308 0.028797332 -0.011325099 -0.04168149 -0.025840962 -0.036839414 0.008450735 0.026729349
usually 0.03347068 -0.04723859 -0.0009816065 0.016483437 -0.0029693954 0.04923928 -0.021338547 -0.043868482 0.029805217 -0.0006997958 0.03355397 0.037742916 -0.042100586 0.013386156 -0.0386449 0.044271816 0.032193456 0.032479156 -0.021465851 0.039129946 -0.02924843 -0.014969327 -0.045118976 0.037774596 0.03063618 -0.04867958 -0.037969768 0.015132967 0.018688533 0.04970045 -0.046044517 0.004484214 0.0042456165 0.020220194 -0.003331028 0.006195843 0.0045504346 0.0017801896 -0.025485529 0.011508714 -0.033715166 -0.0033158176 -0.037671067 0.01256654 0.011156369 0.02179024 0.01842508 -0.014295589 -0.03069346 0.022389736 -0.026581872 0.026467178 -0.03290713 0.00823598 0.038697828 -0.041936196 -0.03911538 -0.020716144 0.011058129 0.020655844 -0.013684668 -0.0017980225 -0.008426882 0.049713735 -0.022983301 0.022856306 0.013481919 0.0065096617 0.009600986 0.014494229 0.014328886 -0.021294916 -0.031106686 0.0023503527 0.045653235 -0.012165058 -0.04083687 0.03854579 0.0386479 -0.011223424 0.03548516 -0.015026867 -0.048599698 0.035418 -0.037517227 0.015943658 0.037108134 0.044628274 -0.04354867 0.027135167 -0.0044794306 0.01321033 -0.012305856 0.038316336 0.026434135 0.019921724 0.005498886 0.004567016 0.012475859 -0.03660568
too 0.00019558519 0.019327436 0.041741658 0.020904671 -0.02439251 -0.02425139 -0.0052509084 0.026503969 0.033804152 0.03846539 -0.0040458217 0.011876155 0.0392741 -0.043632854 0.013469603 -0.028908074 0.02506337 -0.041067876 0.002974905 0.035753403 -0.04455278 0.023250047 0.012404263 -0.034428705 -0.036796223 -0.020773698 0.029791001 -0.009113573 -0.036504366 -0.0047068484 0.01911876 -0.0003648512 -0.013098992 0.027333606 -0.045158733 0.037741873 -0.029346228 0.042389456 0.030293059 -0.0013155714 -0.03879162 0.041372564 -0.018421758 -0.027990593 0.016082857 -0.034015954 0.03218967 0.039825667 -0.01761929 0.029019188 0.024838153 -0.035375893 0.025302138 -0.047471203 -0.020121098 0.01706903 -0.04329715 0.03598063 0.017860737 0.021415185 -0.008551121 -0.017855596 -0.037672304 0.0370898 -0.02718016 0.015547384 0.015987407 0.028458703 -0.03670212 -0.020105124 0.009583034 -0.006954003 -0.0049455874 -0.0051636808 0.03890867 -0.0035399795 -0.009203471 0.009887874 -0.006502725 -0.040475093 0.013978232 0.017588902 0.0006477237 -0.0016533844 -0.027183091 -0.036667146 0.028319802 0.0037382133 0.036025558 0.04935703 -0.04288603 0.00012908131 0.037808288 -0.03799802 0.019969497 -0.028363336 0.046505895 0.022100482 -0.005420018 -0.02991419
many 0.020409215 -0.03436567 -0.019211961 0.04763552 -0.037177302 -0.031200195 0.047551263 0.010440029 -0.044119835 0.003974974 -0.011083316 0.047310714 0.020927478 0.022489812 -0.01948669 0.04765817 -0.038129054 -0.013215661 -0.027322793 -0.0004346259 -0.0022935048 -0.010879446 0.024001744 -0.0053923503 -0.010187019 -0.014574803 0.006274022 -0.04927237 -0.00039702654 0.049478974 0.008590318 0.03195231 -0.018280841 -0.0022322424 0.047563564 0.008981667 0.043085944 0.048890557 -0.008645296 0.033036303 -0.028427709 -0.022390628 -0.028236914 -0.01221516 0.032937232 0.023320962 0.022112455 0.032941315 -0.004866313 0.012492441 -0.025959898 -0.029886246 0.0042712316 0.012460839 -0.011479534 -0.040246926 -0.016812932 0.028976705 -0.0026102439 0.04780585 -0.009926774 0.039957855 0.046709623 -0.0011069998 -0.011276174 0.014611471 0.0033192262 0.03816892 -0.040831707 0.013027322 -0.022244323 0.023875427 -0.007731177 -0.038223527 -0.014015686 0.03686258 0.0011391044 0.042446706 0.019168619 -0.016699601 -0.04196315 0.037748527 0.04984382 -0.04519832 0.016944077 -0.044498373 -0.035342097 -0.03042431 0.01918504 -0.022271598 -0.018571962 0.0053981654 0.009133469 -0.018179953 0.012646947 0.0022772327 -0.009737778 -0.023534358 0.0035791993 -0.007735133
on 0.039817546 -0.03951366 0.023094509 0.031871293 -0.02059766 -0.019667102 0.03361441 -0.01948135 -0.009503461 -0.016715933 0.043701414 -0.04923841 0.045501422 0.03173438 -0.017014384 0.048179675 0.037378315 0.049970437 0.01777986 -0.037532926 0.01492336 0.019721422 -0.03421253 -0.01612283 0.049949218 -0.019263243 -0.034206763 0.022571806 -0.022370446 -0.023304582 -0.010184228 -0.01600901 0.008870352 0.025712635 -0.0092660785 -0.039331816 -0.04382634 -0.045981325 -0.028676188 -0.022416461 -0.009132206 0.020666089 0.0024170987 -0.035157442 0.048955534 -0.017772842 -0.0071173906 0.027646068 0.04442701 -0.023191953 -0.04117904 -0.0049643405 -0.029563976 -0.026414156 -0.0006521456 -0.019534875 0.0064576976 -0.005410351 -0.0036237463 0.02372868 0.004338123 -0.04148207 -0.034711014 -0.011354305 -0.0479 0.040607285 -0.046334114 0.005806923 -0.0013367049 -0.019856203 -0.031252943 -0.019786656 0.03487101 -0.010139335 0.030586485 0.018682826 0.04272915 -0.0045719855 0.039712418 0.016699862 -0.0075312033 -0.018551074 0.028208662 0.042478207 -0.0349643 0.0051245317 0.006842267 -0.017878603 0.027542476 -0.037610997 -0.024245918 -0.00059660524 -0.02101401 0.03833076 0.034738395 -0.029508745 -0.027674878 -0.0014341697 0.03871948 0.049345102
body 0.033057857 0.041203115 -0.023306597 -0.04031136 0.046495307 -0.03158208 0.018357579 0.032512654 0.035024513 0.020397115 -0.03407923 -0.03216239 0.020796966 0.033544924 -0.011128068 0.009027384 0.010675728 0.049475085 0.038452532 -0.00560721 0.042150583 -0.042373624 0.046832133 -0.010873854 -0.042618442 0.00952705 -0.00954362 0.045249794 0.032367613 -0.0010496862 0.04260386 0.03135668 0.0023879893 -0.0035397634 -0.016342126 -0.03145297 -0.045492638 -0.038184702 0.008187234 -0.031731322 -0.038558282 0.019813132 0.029570226 -0.017904244 0.009632278 -0.040784456 0.049761977 0.0021534786 -0.020942867 0.042944577 0.04363021 0.014080431 0.0017991178 -0.026435113 -0.038393356 0.048741248 0.007277798 0.03627875 -0.0032828934 -0.012182392 -0.011816312 0.04556531 0.006981708 -0.020129574 -0.015593637 0.016373184 0.029047046 -0.011882771 -0.00070805475 0.029976401 0.014521543 -0.0020100363 0.0015046373 0.04733907 -0.031800486 -0.019132508 0.010371376 0.001488816 -0.030825078 -0.009286534 -0.014228236 0.020584214 0.0069607124 0.0053236 0.014648709 -0.020966649 -0.042303707 0.034568097 0.020577874 -0.036548994 0.049076688 -0.041446436 -0.028038561 -0.004937969 0.022565093 0.0435274 -0.0013036504 0.036633004 -0.049513306 0.030829001
cycle -0.04564904 0.022154596 0.031926405 -0.039038014 -0.0013225898 -0.00071598217 0.027406875 -0.021443283 0.005426787 -0.02964661 0.029382039 0.037411343 -0.0073739663 -0.016371299 -0.046188176 0.036970187 0.024884868 -0.038795948 -0.01012788 -0.0115423575 -0.047492433 -0.028427852 0.025871027 0.012747396 -0.025588049 -0.02007041 0.022696685 -0.015258171 0.04708444 -0.03191178 -0.037052978 0.0011287332 -0.047227632 -0.026703168 0.023198355 0.0466146 0.0022466183 -0.04116136 -0.04862361 0.043560278 -0.018202327 0.038301956 0.044634294 -0.013457276 -0.027704835 -0.00049446896 -0.034431767 -0.018071424 -0.04232142 0.016061332 0.025541518 -0.047297608 0.023481693 -0.015218604 -0.036438286 0.014319431 -0.0006401539 0.031155515 0.0012935773 -0.027798522 -0.039469756 -0.005130075 0.02240144 0.04324666 0.043205764 -0.0027981773 -0.0058537237 -0.00054097176 0.0487882 0.0028433912 0.009194244 0.008144952 -0.04431473 0.010727204 -0.030086244 -0.035839986 -0.02930156 0.022088554 -0.010946713 0.028495941 -0.038868356 -0.044311404 -0.040591896 0.020681467 0.0442088 -0.024001217 0.029891644 -0.03702886 0.03144497 -0.02237152 0.03786612 -0.037986197 0.049589407 -0.0021591075 -0.031752005 -0.01829021 0.03766037 0.024547111 0.012903664 -0.01320342
class -0.016658925 0.044776764 0.037191365 0.039273325 -0.043055214 -0.048802186 -0.03539021 -0.036670707 0.013490748 -0.039604187 0.03531574 0.014172766 0.0309772 -0.031155372 0.032265905 0.008487035 -0.03532846 7.1525574e-07 -0.040084075 -0.01998967 -0.043327846 0.039616857 0.0023968108 0.020655964 0.009396352 -0.022345578 0.042219553 -0.022091735 0.029768135 -0.023682654 0.043517772 -0.04128989 -0.027317584 -0.027157295 -0.013728332 -0.04785501 -0.029709673 -0.020434678 -0.03354051 0.03585862 0.0060918704 -0.034812592 -0.02309817 0.046083737 -0.033782028 0.032032277 -0.03038671 -0.008057736 -0.0094950795 0.028568152 0.026560549 -0.029507518 0.016419198 -0.015993249 0.006910395 0.012785796 0.024622824 0.0055385455 -0.010263741 -0.0097846165 0.0074744113 0.028967287 -0.04952371 -0.03982488 0.044444922 0.001342345 -0.027143503 -0.004798256 -0.029115617 0.020240512 -0.030153787 -0.017559625 0.049849603 0.0037258044 0.026796486 0.014032807 -0.024068391 -0.01802484 0.01823416 0.0034350269 0.022983897 -0.040117264 -0.016792476 -0.0075183623 -0.043685187 0.015056144 0.030354667 -0.04362719 0.038310084 0.03188045 0.03617331 -0.038434602 0.0165287 0.040902223 -0.014545821 0.022404063 0.04763606 0.047306646 -0.019309891 0.034152914
anyone 0.04101577 0.012768332 0.005318068 -0.03710134 0.025788967 -0.012083136 0.017483663 0.03806405 0.019573424 -0.01652322 0.01182159 -0.047029626 -0.03676492 0.027892414 0.04141028 0.031775106 0.00600072 -0.027397847 0.0018161759 -0.01968944 0.03246894 -0.035105754 -0.009508133 0.0035059564 0.013431225 -0.02478155 -0.03464831 0.023068082 -0.04486772 0.03354392 0.005417239 -0.025872016 0.041257087 0.04541186 -0.0036857612 -0.021067679 -0.036697637 0.027917895 0.010552429 -0.019313384 0.026194755 0.0005070679 -0.00050536543 -0.0229491 0.0075610764 -0.0046311617 -0.028547024 -0.0037045367 -0.006640099 0.041384134 -0.032555915 0.045507435 -0.04239246 0.039730955 0.038704578 0.027523842 -0.004758917 -0.041710865 -0.021714855 -0.03229897 0.020530108 -0.014357973 0.016393173 -0.007146336 -0.04589813 -0.03250047 -0.0453758 -0.018131912 -0.047004044 -0.014076613 0.036769558 0.025301043 0.04882962 -0.040756274 0.042269435 0.03543253 0.011288118 -0.0253515 -0.013506282 -0.039278816 -0.005216848 -0.019745935 0.04555532 0.042184982 0.039400283 0.031652678 0.02335925 0.043125022 0.008699227 0.041945685 -0.018678378 -0.039476812 0.0037897825 0.026823249 -0.034072876 0.013060238 7.1413815e-06 0.01788764 0.02377205 -0.043546867
no 0.03297173 -0.035041165 -0.04355371 0.03167819 -0.017704427 0.0127463825 -0.037471067 0.003844656 -0.011668645 0.04486878 0.023047734 -0.047507882 -0.047325313 0.0070549026 0.019571532 -0.022302926 0.0032506809 -0.023286426 -0.049512483 0.015769664 -0.034811903 -0.024802446 0.02626573 -0.020834362 0.01608536 -0.040670633 -0.019067729 -0.04601511 0.017965626 -0.009255111 -0.0072890297 -0.017073084 0.003637433 -0.027272929 0.0137781985 -0.029962694 -0.04125198 0.035956535 -0.049262345 -0.04611242 0.020820443 -0.029875612 0.044477705 0.016086254 -0.02861923 -0.03108424 0.03681885 0.0031105988 0.030815307 0.01484834 -0.043659817 -0.016177855 -0.010545861 -0.0013616681 -0.040504824 -0.022413148 0.029813182 -0.009114634 -0.034773123 -0.027300144 -0.003615331 0.039563607 0.043820713 0.032592464 -0.04218675 0.04969028 0.0044023283 0.011872731 -0.02579291 0.018843438 0.038000118 0.04044472 0.0060481317 0.041678194 -0.011176098 0.004819941 -0.015383553 0.0056117773 -0.018932689 -0.02102046 0.020083737 0.012960527 0.0022474416 0.006965231 0.034267712 0.041683342 -0.047270607 0.047109555 -0.04971223 0.036821093 -0.0098824985 -0.034248162 -0.009880565 -0.041489385 -0.03917395 0.038609598 -0.043843377 0.007989276 0.01159079 -0.018966317
russell -0.015147068 -0.008498929 0.026322436 -0.019138588 0.040110145 0.020781372 0.034360554 0.021820892 -0.00430844 0.046863507 0.007172525 -0.014657568 -0.024406016 -0.024758268 -0.0021162033 0.049500946 0.020337965 0.020332087 -0.037096895 -0.003225781 -0.040842175 0.03044751 0.006727051 0.025379252 0.041449334 0.02231444 -0.017238297 -0.021044994 -0.0075353608 0.00960616 0.017830733 0.035849262 -0.045493662 0.018139336 0.008602165 -0.047638383 -0.0005550869 -0.028875267 0.008619823 -0.018203653 -0.0068160184 0.0439764 -0.040840458 -0.0013440475 -0.020213068 -0.01751399 -0.036379218 -0.0017151237 -0.014884591 0.047026824 -0.018323552 0.036357556 -0.0060293786 0.038685117 -0.008062325 0.03173128 -0.015315317 0.014459614 0.040719178 -0.010044992 0.012572136 -0.03168323 0.010071207 -0.002102483 0.031509284 0.028904941 -0.030034626 0.010714781 0.03169221 -0.039486874 -0.0144577995 0.023140762 0.03771993 0.020540226 -0.02979287 0.013533328 -0.010136962 0.047473717 0.04820397 -0.0025025979 -0.016782988 -0.03194033 0.036814813 0.04623932 0.007670544 0.0027277581 -0.03273473 0.02332941 -0.004201688 -0.044532944 0.014364947 -0.015730001 0.022817586 -0.03628404 -0.0009370819 -0.03897015 0.014238004 0.030022692 0.046670232 0.04721688
always -0.03664578 0.025527742 0.022373106 0.016208578 -0.036653124 -0.037979342 0.021981608 0.03251947 0.020987857 -0.029013826 0.014686827 0.02448621 0.049532894 -0.040425025 -0.027908266 -0.018281959 0.011206411 0.016577054 -0.0432042 -0.04558158 0.037920546 0.049637023 -0.025797272 -0.03350506 -0.029992675 -0.006194126 0.04024532 -0.004508745 0.013779592 -0.034393728 0.0063809156 -0.020968366 -0.0010748506 -0.015082382 -0.027717972 -0.04196961 0.026904855 -0.047491957 -0.012545191 0.04580487 -0.007206619 -0.019614065 0.011798121 0.034886505 0.030339252 -0.019581331 0.02049091 -0.0042024255 -0.04479716 -0.022912657 -0.045869686 0.012480877 0.045300912 -0.010252811 -0.040814985 0.021023143 0.0019760504 0.016560402 -0.0487823 -0.04525107 0.004383076 0.046381485 0.00076431036 0.017494533 -0.016966175 0.04188372 -0.036055457 0.0017368793 -0.039718617 0.039588783 -0.016645849 -0.020156432 0.025386002 0.036352996 0.02964529 0.027970087 0.025311325 -0.011577882 0.03403363 0.043805767 0.0072826743 0.02238122 -0.04162972 -0.04667909 -0.042734075 -0.025287474 -0.018231653 0.042844865 -0.04548165 0.016535733 0.039972212 0.008115731 -0.034046292 -0.008845091 -0.03687229 -0.030214084 -0.002477087 -0.0054902546 0.026591096 -0.03030554
positive 0.013215009 -0.026185442 0.04232018 0.00024331734 -0.033120513 0.010301255 -0.0071486235 0.026866522 -0.030786514 0.030281689 0.011747442 -0.0004669428 -0.033074725 0.02545296 -0.04093703 -0.044038784 0.00392605 -0.014265977 0.036957826 0.030910578 -0.049470045 -0.022867585 -0.032618843 -0.04807817 0.024652455 -0.022257257 0.030145254 -0.030734314 -0.045020856 -0.03653114 0.019439925 -0.047275137 -0.027764594 0.010883402 -0.0400391 -0.049321186 0.047794428 -0.024474217 -0.036444843 0.042190645 -0.029103816 0.035279874 -0.03920368 -0.005123902 0.043603648 0.009662546 0.018214468 -0.04927659 -0.030339016 0.011925589 0.023076702 0.027191494 -0.02284044 0.0138374455 -0.03276037 -0.003040541 0.012509171 0.04719046 0.0030892119 -0.045035828 -0.0087370165 0.01539148 -0.027795507 0.028315712 -0.036276616 0.009828448 -0.038549125 0.03225397 0.03149188 -0.033339463 -0.011743568 0.025562111 -0.002120532 0.046752106 -0.025223756 -0.026353264 -0.0037802346 -0.028209759 -0.007817052 -0.036210824 0.009031903 0.045675185 0.0231562 -0.00871525 0.04127535 -0.0147813335 0.018891644 -0.021290064 0.012949478 0.034934234 -0.028095638 -0.00044919178 0.048671547 0.045926798 -0.017060913 0.01440898 -0.014698397 0.030557025 -0.042275287 0.0024538636
different 0.028141703 0.024852369 0.043809857 -0.0125562325 0.026624154 0.021180693 0.012176655 0.034669664 0.014523853 -0.046312522 -0.018509556 -0.036057927 0.01814412 0.0020722635 0.047746424 0.04700624 0.015529241 0.04567026 -0.041132294 -0.043848183 -0.044345345 -0.02513262 -0.004348349 -0.03180187 -0.048312843 0.0058367476 -0.00011862442 0.005183816 -0.013970077 0.040862527 0.034465577 -0.029707551 0.015629794 -0.027225101 0.034283314 -0.021717072 -0.026275957 -0.037291896 0.02263664 -0.038166426 0.020420078 -0.014079608 -0.048229363 0.047583494 -0.021109259 0.04549748 0.03308073 0.019407775 -0.0162668 0.03563417 -0.03388828 -0.04262043 -0.025962329 -0.0022360682 -0.003625594 -0.00037659332 0.021594528 0.016390566 0.0056955926 0.047434736 -0.018986428 -0.025171757 -0.048472084 -0.0091591105 -0.023474062 0.041482758 -0.019112218 -0.037434973 0.018310394 -0.0128811225 -0.03352815 -0.018223383 0.016007375 -0.0026967637 -0.04853077 -0.028001964 -0.01642834 0.01761612 0.04543743 -0.034524657 0.02383316 0.012419712 -0.0201712 -0.035988607 0.00028120354 0.038883362 -0.025054682 0.039442983 -0.0053187124 0.048857044 0.0076835863 -0.0028204434 -0.0424752 0.012788247 0.03784063 -0.037756823 0.035708617 0.04547819 -0.02204665 -0.040966224
our 0.038397256 -0.03766588 -0.049704004 0.010089766 0.028491471 -0.010056056 -0.013490595 0.041438486 0.037334573 0.020189691 0.03978231 0.0070747957 -0.00989021 0.03849664 -0.013739921 -0.019721473 -0.012483727 -0.018653225 0.026932683 0.009924304 -0.023659755 0.04059707 -0.014518689 -0.013729073 -0.044213213 0.02238636 0.006600272 -0.017150689 0.018323246 0.019552235 -0.042879343 -0.042546418 -0.010643519 0.014467988 0.02636442 0.04435548 -0.046107974 0.02738491 0.01610713 -0.03478968 0.027814414 0.038903747 -0.029256439 -0.027421642 -0.04107324 0.043698106 0.038981292 -0.0246624 0.016481016 -0.044086244 0.025653746 0.03811613 0.041865144 -0.01012367 -0.026455773 -0.033242572 0.014005747 -0.0337538 -0.015430022 -0.011561789 -0.044775963 -0.012812603 -0.029210484 0.045571852 0.03364874 -0.005727686 -0.04625919 0.020232145 -0.0049809217 -0.045021202 -0.040378857 0.015510324 -0.020685459 -0.025261676 0.041048158 0.014387656 0.007885158 -0.018200457 -0.032371737 -0.032957576 -0.038244475 0.03307042 -0.042304695 -0.014344372 -0.042456426 -0.009715974 0.014060225 0.049893323 0.0135936625 -0.035653435 0.030160297 -0.02288419 0.045565117 -0.036760114 -0.0061890855 0.023492824 0.043925766 0.003078986 0.042456698 -0.048018873
if -0.031465493 0.025943328 0.029850993 -0.010479461 -0.001301419 0.024805639 0.039476264 -0.03026867 0.0072472915 -0.0014600046 0.017626856 0.025305513 0.037933793 -0.028183067 -0.00040791184 -0.029588843 -0.016090978 0.007556163 0.0128482245 0.026263002 -0.03577329 -0.02139622 0.03800864 -0.04863547 -0.017955542 -0.021069825 -0.0042429194 -0.02309754 0.04797573 -0.03795898 0.038737122 0.03405935 -0.022987306 -0.02381928 0.030702148 0.015088525 -0.04237474 0.04797444 -0.020864606 0.025486495 0.010029219 0.043778744 -0.00035967678 0.049161587 -0.0046027415 -0.036392916 0.013957147 -0.018628754 0.0487811 0.049868647 0.00030814484 0.04512078 -0.0033110492 -0.030069804 0.0067851543 -0.008049488 -0.010148309 -0.043320026 0.012260459 0.047718916 0.01816925 -0.015761305 0.049066674 -0.014889609 -0.010365415 0.0233672 -0.033740416 0.045019735 -0.02980206 -0.037691295 0.0413373 -0.027201463 -0.03827983 0.033024583 -0.023345817 0.04596651 0.0019200929 -0.04142915 -0.030176032 0.0017662048 -0.024246646 0.00478518 0.035570804 -0.034097455 -0.019356608 -0.025638986 0.015678618 0.006367542 -0.0064193383 -0.021792209 0.032994 -0.011878621 -0.04914377 0.04173905 -0.049508955 -0.009309482 -0.016568802 -0.046135545 -0.016059376 0.027096998
decide -0.00811132 0.03373109 0.026089314 0.0024446473 0.03334104 -0.03791344 0.014260221 -0.005138349 0.035737026 -0.023686528 -0.03848921 -0.02627994 0.016462635 -0.038054325 -0.008527566 -0.024577117 -0.041664682 -0.02203536 0.009001218 -0.013781704 -0.03575487 0.024318282 -0.023210097 0.048912574 0.034679893 0.030825559 -0.030175388 -0.022216523 0.010469854 -0.008739423 -0.017205168 -0.015534449 0.027358327 0.02961931 0.0070425496 0.0110468045 -0.023283124 0.04112548 0.014686707 0.041337702 0.03674257 -0.004396796 0.017984007 0.037519645 0.04007076 -0.012184143 0.011982344 -0.02311858 -0.00070943683 -0.015093587 0.0361079 0.03433268 -0.048139155 0.02558751 -0.012003221 -0.020370817 -0.03275367 -0.028627444 0.013582889 0.02021319 -0.008357894 -0.02440293 -0.018496525 -0.027043998 -0.026295496 -0.010642432 -0.01964227 -0.006396126 0.042731766 0.010309659 0.043706764 -0.019294024 0.02103759 0.031898234 -0.04444411 -0.012260258 -0.03785485 0.046175543 -0.046238054 -0.0060288087 0.008123696 0.01078701 0.012286842 -0.0051037893 -0.03342545 -0.002613902 0.009450853 0.011913814 -0.020380367 0.038953613 -0.04637132 -0.024614586 -0.010441542 -0.0320035 -0.0116096735 0.049436394 -0.027785813 0.008643735 -0.020255065 0.00038534403
eat -0.010487236 0.022550892 -0.03606827 0.03849194 -0.016881607 0.024101365 0.0011953115 -0.030315626 0.006089665 0.028197456 -0.039472293 0.026558314 0.037747826 -0.03819716 -0.04241369 0.0036450513 -0.01260351 -0.035063077 -0.003992688 -0.0014072061 0.0039085634 0.036270622 -0.04903971 -0.036890198 0.024739768 -0.0149771795 -0.008015655 0.03627746 0.009830546 -0.025942767 -0.04049287 -0.026407672 -0.019945813 -0.031267896 -0.01095935 -0.048195172 0.0021117926 -0.006414436 -0.043468 -0.006356586 0.027834479 0.0045770295 -0.019947434 0.0072088726 -0.018700074 -0.014072835 0.029471848 -0.0036026947 0.022550415 0.041937266 -0.006483782 0.007079553 0.02867775 0.019797925 -0.03699287 0.0056807026 -0.04327488 0.037083175 -0.027302504 0.014318887 0.022780206 -0.041107405 -0.026612878 0.033561695 0.04722662 -0.035465203 0.049286854 -0.036295973 -0.0072568655 0.007714998 -0.011097491 0.012148701 -0.009540178 -0.04488063 0.029528443 0.010072578 -0.036508463 0.031721544 -0.034419097 -0.013800062 -0.030908108 -0.03333374 0.032190528 -0.03738842 -0.023715222 -0.033924043 -0.009514034 -0.046426296 0.0010586008 -0.02207061 0.024177361 0.03265008 -0.005154945 0.02594236 0.002805341 0.049389634 0.018137407 -0.04144591 -0.019262135 -0.040919315
here 0.014885593 -0.045874514 0.042073216 -0.011571407 0.028926615 -0.01864935 0.004101515 0.0014236458 0.04496188 0.045284357 -0.03593465 -0.04137232 -0.001606822 0.0038598664 0.024176922 -0.045834433 -0.020187771 -0.010608874 -0.041134607 0.03461505 0.047671806 -0.013286352 0.00066068023 0.036470834 -0.0013795383 -0.02399726 -0.04828001 0.0066021793 0.032264855 0.020488966 0.03455663 0.021065522 0.0049283616 -0.040359855 -0.034370087 -0.0142637715 0.030497793 -0.034234904 -0.043569863 -0.012519799 0.03134049 0.039472487 -0.035191894 -0.046641555 -0.011120856 -0.01091782 0.01790556 -0.023556089 0.01051135 0.035380673 -0.030155683 0.002322413 -0.048921227 0.03674228 0.02241012 0.01732986 0.035412695 0.005121935 0.044769112 -0.023326326 -0.030146003 0.033724334 -0.002261579 -0.038887262 0.021337513 -0.011089873 -0.046090342 -0.018569946 -0.04269916 0.021015491 0.047668424 -0.0040856972 -0.018258788 0.04498594 0.049124453 -0.04245616 0.047191452 -0.03755338 -0.0147688165 -0.004677307 -0.045632374 0.041229 0.010643445 0.043410804 0.021173742 0.041017447 0.049589183 -0.038277127 -0.02704661 0.025018025 0.019086692 0.025906 0.008077718 0.047327805 -0.015100442 -0.04124992 -0.017240368 0.046626355 -0.01499356 -0.009474017
aware -0.024222052 0.030613516 0.033688914 -0.040078055 0.03026395 0.018230703 -0.008243013 -0.017955206 0.009273864 -0.037056673 0.02955908 -0.024850452 0.041566107 -0.045948077 0.025733877 -0.0061651245 -0.04773859 0.013705935 -0.041412044 0.01611105 -0.016644884 -0.046966244 -0.028015733 -0.014459752 0.023157049 -0.043906964 0.0018877387 -0.0058218613 0.031926405 -0.017920006 0.018718552 0.040764693 0.010411501 -0.0043498278 -0.019583965 -0.01674813 0.011797033 -0.036858223 -0.04713849 0.04853708 -0.019841576 0.022795726 0.014373969 0.038192723 0.0081552975 0.037619416 -0.03413718 -0.040112577 -0.036631428 -0.023747552 -0.02988316 -0.013998318 -0.023785854 -0.031700276 0.015189473 0.016139481 0.047854606 0.0072460994 0.042338442 -0.009691488 -0.023138046 0.0034318194 0.029416513 0.03973956 0.021619651 0.024219777 -0.009266425 -0.015304875 -0.03764826 0.03206959 -0.038340617 0.043679845 -0.026334345 0.041913535 -0.01664685 0.0077613965 0.014035556 0.004576195 -0.01238215 -0.035614837 -0.024971856 -0.017264199 0.03911412 -0.012567081 0.014450852 -0.0045261383 0.021826055 -0.015141763 -0.0036545508 -0.002386164 0.010298692 0.037956547 0.0045545585 0.035777103 0.029197726 -0.012777247 -0.0035050996 0.04567652 0.019766662 0.049327258
going 0.032988038 0.025499713 -0.037590683 -0.038507737 0.045599137 0.019069005 0.008996427 -0.03150828 0.007324457 0.037620332 0.02486289 -0.034231387 -0.025499916 0.028164688 -0.027273238 -0.048074283 0.0103086345 -0.0073412433 0.04067122 0.043637145 -0.029769588 -0.009490192 -0.0026675686 0.01851121 -0.0281492 0.024762098 0.018530581 -0.020066416 -0.022479534 0.04943076 0.043440808 0.041152667 -0.017678726 0.023591075 0.024666402 -0.03510145 -0.04717051 -0.046233118 0.017601375 -0.03214021 0.010941386 0.049813773 0.034263004 0.028289858 0.039883997 -0.0041148663 0.019192826 -0.009411644 -0.047814775 -0.017278899 -0.031101262 -0.024442494 0.00015479326 0.008723546 -0.02762021 0.034534838 0.03836814 0.0067531355 -0.029813243 -0.04037863 -0.043125737 0.009153556 -0.047692146 0.002783917 0.025672626 -0.048088588 0.03151014 0.008119069 -0.013210427 -0.003124427 0.0012583025 -0.0075012557 -0.048805725 0.017345194 0.022857059 -0.049331356 -0.009004105 0.010044061 0.049476873 -0.031127607 0.03822795 -0.04049609 -0.014744759 0.034623448 -0.036047913 0.0053469315 0.0232603 0.021118555 0.0416171 -0.011820089 0.030530345 -0.009459555 -0.003483735 0.019406583 -0.033181272 0.015601147 0.020868365 0.0028645508 0.04328649 0.017447043
take 0.029868666 0.006024301 0.017764602 0.03526057 0.020580698 0.009600829 -0.0023972504 0.012580503 -0.02012595 0.042804744 0.019223895 0.041397426 0.036755588 -0.044947743 0.001293838 -0.030611252 0.03267801 -0.0025902987 0.013333272 0.011672996 0.016971085 -0.03976667 -0.0078062788 0.00062017515 0.0118402615 0.019467939 -0.024720658 0.027628366 0.026406396 -0.031681288 0.044525634 -0.022250582 0.014567804 -0.03335134 0.018927444 0.01529349 0.046491515 -0.039889585 0.040572356 -0.043694794 -0.03044076 -0.01011616 0.04685067 0.030727599 0.027675334 0.039549243 0.014795255 0.021121118 0.016906705 0.0037352815 -0.024495268 0.018552814 0.022693101 -0.023407925 -0.03540206 -0.033386603 -0.02617693 -0.019351674 0.007774174 -0.028974235 -0.024901284 0.0476902 0.021525625 0.046748195 0.03267059 0.017193947 0.036117364 0.0126809515 -0.009847082 0.04284331 -0.020030929 -0.027924193 0.032514106 0.009464908 -0.020722235 -0.006308865 -0.040542554 0.011968054 0.010491978 0.021207105 0.04710081 -0.04391296 -0.00016859919 -0.014583588 0.0014473088 0.042269517 -0.025990713 -0.02897513 -0.027328933 0.021116983 0.009050261 0.025201503 0.0049756877 0.044175956 -0.03326744 -0.03570224 0.03849974 0.023300137 -0.034769118 -0.020745361
about 0.038890135 -0.004583001 0.0031642206 0.023754086 -0.033667624 0.03869644 0.039809633 -0.045507517 0.036230695 -0.003103532 -0.006232679 0.018405113 -0.0404971 -0.019412661 -0.04284004 -0.014289618 -0.0015626065 -0.013604175 -0.037243713 0.013978783 0.047188703 -0.019942557 -0.04963353 0.028609578 -0.022987306 0.03686518 -0.019350374 0.0015666261 -0.037506152 0.011393212 0.008949779 0.02600998 0.04501157 0.03906003 -0.00881394 -0.00288124 -0.028749539 -0.009420551 0.028442848 -0.030691182 0.0028121956 0.014288258 0.003423132 0.027456094 0.010236729 -0.016048837 0.044906143 0.009856261 0.047358956 -0.039764035 0.04991697 -0.034216367 -0.0022947304 -0.01239717 -0.00045511872 0.045995545 -0.007007301 0.028775577 0.044293534 0.019972492 0.049198303 -0.0131517425 -0.049596857 -0.029315794 0.045315254 0.00083652884 0.028716099 0.004420232 0.03513254 0.020102847 0.048280988 0.02585641 -0.015937783 -0.034820415 0.0098157525 0.011716723 0.048970018 0.03872521 -0.00854858 -0.012812279 -0.012235951 0.017237138 -0.019684171 -0.022283698 0.015629414 0.0034250133 0.010443844 -0.00974679 0.016412523 0.029876601 -0.04616263 0.013096157 -0.0024508946 -0.027719928 0.021451477 -0.009370744 -0.014386736 -0.018229019 0.04012605 0.023425069
2 -0.04047172 0.044156816 -0.03740462 0.0030530468 -0.016366053 -0.037353374 0.020855498 -0.025828982 -0.028853929 0.02394754 0.039965738 -0.040007032 -0.0151641965 0.016080622 0.0029224865 0.008640539 0.022925984 -0.026306713 -0.044613313 0.009964488 -0.015675593 -0.049646664 0.035876933 0.04945818 -0.0015373342 0.041207682 -0.032833613 -0.0029931292 0.046477746 -0.01782874 0.030972484 -0.0015436038 -0.02128464 0.017572392 0.020933691 -0.036331296 0.016290735 -0.022182226 -0.018253852 -0.0009969845 -0.030049814 0.041784856 -0.03487792 -0.03279207 0.023224007 0.02064306 -0.0023017898 0.039380897 0.037700664 0.047423434 0.0365063 0.046938602 -0.015141867 -0.024715567 -0.0104242675 0.03503147 -0.018445443 0.017995846 0.009707581 -0.01666721 0.012705538 0.017664757 -0.0042621866 -0.03708147 -0.0119385235 -0.042437114 -0.00010190159 0.010510601 -0.014716852 0.029536035 0.019342486 -0.012327611 0.033927415 0.00068868324 -0.0460966 -0.042344537 0.018237118 -0.018822074 -0.032758333 0.030016426 -0.041760933 0.0073027723 0.043611955 0.033080745 -0.015959583 -0.026222909 0.016893078 0.023562204 0.036926184 -0.006642185 -0.033443272 0.023620676 0.022519413 0.041770067 0.032932613 0.033666577 0.0088866465 0.016426634 0.02297305 0.047874596
hours -0.010387551 -0.015217863 0.012663517 0.035899732 0.015079204 0.009489477 0.028882775 0.00245402 -0.02905041 0.015637387 0.016294632 0.0022136793 0.009152032 -0.023578513 -0.0025994554 0.044847038 0.041239645 -0.019845998 0.0015665665 0.0050844327 -0.007703472 -0.004098691 0.0054331645 -0.010627616 0.01825254 0.0027218945 -0.0056013092 -0.04097364 0.0057358257 0.021091688 -0.01740656 0.040975403 -0.0020118952 0.015931558 -0.033174038 0.008051313 0.036748175 -0.033291355 -0.002234567 0.00037138537 0.023805682 0.017562758 0.018629085 0.03230599 -0.019084489 -0.032173492 -0.030351127 -0.0023917556 0.010508347 -0.028792156 0.0077685826 0.048411418 0.030455623 0.033024002 -0.045871723 -0.04949975 -0.041427385 0.044791903 -0.03916837 0.017205726 -0.03669355 -0.049683284 0.019904349 0.040651593 -0.016173683 -0.042757954 0.028351877 0.017331544 -0.04782337 0.0049564354 0.008182477 0.02498677 -0.029592825 0.02146275 0.02148464 -0.032966245 0.014477875 0.012180913 0.009129833 -0.035002887 0.015202049 -0.031224478 -0.012571394 0.024672393 0.043022465 0.039955426 -0.042447306 0.03586631 0.011152029 -0.03948418 0.0037269592 -0.019146204 -0.027989661 -0.036402404 0.0020982735 -0.034644723 0.01876111 -0.019941999 -0.032803357 0.03814483
beginning 0.028605353 -0.017716028 0.00868522 -0.04954958 0.0072150007 -0.013230633 -0.013226878 -0.044793345 0.0029845834 -0.0031911358 0.03605861 0.029647756 -0.049384605 -0.0018879548 -0.038222373 -0.028245151 0.014423098 -0.033676825 0.03650265 -0.008610167 0.016346302 0.021417867 -0.03357072 0.030987505 -0.0064513683 0.02139965 -0.009396695 0.018620256 0.037218723 0.021808077 0.04246268 -0.01948886 0.013184082 0.04159603 0.010024369 0.018387351 -0.013810802 -0.0072435737 -0.00284319 -0.04924791 0.049150754 0.041312527 -0.008495964 0.014141951 0.01498187 0.029256824 -0.017106544 -0.048217487 -0.047839582 -0.018459093 -0.037668478 0.042016137 0.0061053857 0.0054019205 0.009496819 0.034598056 0.00186833 0.022360835 0.03359021 0.030310225 -0.048592698 -0.014806725 0.035137247 0.045697693 -0.04735248 0.011426676 0.013380956 -0.0014355294 -0.027171457 0.035972368 -0.021445835 -0.04162482 -0.011153519 -0.035550557 -0.013205361 -0.04279083 0.030851368 0.026110891 -0.013742484 -0.017134331 0.024574768 0.0459026 -0.04723704 -0.035349585 -0.03216561 -0.044392813 -0.015467823 0.0037531145 0.04441576 -0.020014716 0.0434147 0.04395849 0.026293647 -0.038873732 0.03582141 -0.02645737 0.014953468 -0.013091065 0.031085562 0.013543222
end -0.034355342 -0.029689027 -0.039360248 0.013353836 0.007693507 -0.037669323 0.04382303 -0.012734272 0.032338772 0.013965856 -0.00345112 0.031089712 0.036022317 0.043016743 -0.022976888 -0.027318036 -0.022979533 0.0388343 0.043333616 0.04896717 0.018246006 -0.024308503 -0.009776153 0.016331147 0.004834961 -0.0014993325 -0.014794268 0.013719406 0.004224755 -0.0006255135 0.033791374 -0.027644325 0.036339853 -0.0365829 -0.04012022 0.010951318 -0.014494669 0.010589838 0.03078201 0.037310492 -0.010286532 0.010238729 0.028914038 0.025043335 -0.0037996173 -0.0036614537 0.019771349 0.019728903 0.027634311 -0.040824365 0.01571006 -0.029385293 -0.032418504 -0.043831695 0.0059188604 0.032293443 0.009676971 0.021443877 0.03787489 0.04238708 -0.007814396 0.049515102 0.027481738 -0.04059454 -0.036989965 -0.0086372495 0.03330065 -0.03600675 0.041449714 0.040803622 -0.0096045025 -0.006433118 -0.03616496 -0.047707785 0.027306568 -0.03562622 -0.015211739 -0.041329253 0.030540396 -0.015436672 -0.03174877 0.032009255 -0.00906067 0.0318568 -0.0014247783 0.03781179 0.026923168 0.013446141 0.042339947 -0.047518205 0.026111457 -0.022085978 -0.013856351 0.039532077 0.045821194 0.04766443 0.013509084 0.005924903 -0.002885867 0.00042938069
tried -0.028888464 0.0114917755 0.04085237 0.021206941 -0.0033109896 -0.045528125 0.005587805 -0.04260223 0.049660098 0.04725528 -0.03219056 -0.0020067208 0.0022415146 0.009065904 0.027388763 -0.028779281 0.02783874 -0.035901416 0.029029671 -0.036387704 -0.008759774 0.007613469 -0.0053456426 0.01088221 -0.010381758 0.013073806 0.020046119 -0.044325054 -0.048408367 0.019105744 -0.038401224 0.01981065 0.001527261 0.03833196 0.021166835 -0.03534633 -0.009426631 -0.03449037 -0.028150452 -0.036483575 0.035015453 0.028807964 0.04449365 0.033860076 -0.043867674 -0.012610592 0.04387564 0.02996384 -0.03890867 0.035300422 0.03595898 0.04310346 -0.032346953 0.036984865 0.00028339773 -0.04075563 -0.018777573 -0.010423303 -0.009583734 -0.035558023 -0.03951007 0.030315805 -0.047878325 -0.028433813 -0.03731706 -0.03271953 0.036328066 0.02125765 -0.033385195 -0.03056221 -0.016989995 -0.036839068 0.041103248 0.0043903217 0.006154049 -0.023022426 0.031037834 0.0056390762 -0.04061135 -0.047656525 0.034681562 0.007944513 -0.018857813 0.03520408 0.03106961 0.0009543896 0.023863185 0.01112796 -0.043755032 -0.0131239295 0.038380135 0.024161365 -0.012561072 0.005441416 0.00043603033 -0.03238318 0.0073808916 0.034148786 -0.016643606 -0.045998372
multiple -0.02339754 -0.016482104 -0.0017024279 -0.037129603 -0.029757667 0.044310723 0.015337173 -0.00066744164 -0.04046155 -0.014330376 0.03944316 0.0468462 0.035630155 -0.018301569 0.027807403 0.0006592274 0.011774696 0.017784808 0.045741368 0.03544948 -0.0086263195 -0.0063506477 -0.0206748 0.014972236 -0.011614241 -0.007400155 0.03148086 -0.03437736 0.038893115 0.047693346 0.023578715 0.010832883 0.018533934 -0.018541764 0.014745522 0.016985003 -0.01840968 0.034457687 -0.013820387 -0.01685648 -0.039051473 -0.003066253 0.047789548 0.014637601 0.030083034 -0.0017650351 -0.021839296 -0.04100295 -0.014877249 0.043394614 0.013757478 -0.008415937 -0.020810043 -0.008857738 0.037386004 -0.044034936 -0.0041329153 0.004183173 0.04517067 0.022367287 0.041329633 -0.012602795 -0.042857897 0.0034461021 -0.019161308 0.032438945 0.021907058 0.049288247 -0.016941477 -0.037849285 -0.044266153 -0.0125627145 0.023700263 0.024954509 0.009150315 0.008380711 0.03277644 0.008151554 -0.0051006563 -0.025690222 -0.03271003 0.036102366 -0.016560733 -0.010862123 0.013676193 0.037593555 7.836893e-05 -0.049111344 0.039312486 0.020630691 0.033324074 -0.03378247 0.035016667 -0.0017279759 -0.016344108 0.026253913 0.017344747 0.038264956 0.0079117045 -0.041313432
times -0.024097776 -0.009218432 0.035012428 0.034111787 0.040326092 0.01916026 -0.004511632 0.020127084 -0.010804523 0.031254504 -0.038276445 -0.038992286 -0.033817783 0.013168488 -0.004240405 -0.026536394 -0.020064449 0.0020520203 -0.036221243 0.0019388795 0.019243348 0.03943718 -0.007864438 0.018177118 -0.026227688 -0.026317526 -0.006357752 0.008643426 0.027860347 -0.044381 0.01564074 0.030692134 -0.02073505 0.040454675 0.027588192 0.0071569458 -0.018789744 -0.0075541027 -0.043365564 -0.013255455 0.026217747 -0.04474025 0.022285987 -0.02691753 -0.024201954 0.013640296 0.0011313073 0.041283194 -0.0175552 0.04821867 -0.01655377 0.045030806 0.025273595 -0.02123083 0.04203031 0.0057964213 -0.042071354 0.04235344 -0.011960518 -0.03946818 -0.04542909 0.04639807 0.019681636 -0.032952882 -0.015878748 0.04676887 -0.0133859515 -0.022235526 -0.044791043 -0.0060053095 -0.013492178 0.012181114 -0.022985792 0.0076571703 -0.029625988 -0.03448373 0.021002758 0.034320977 -0.013673138 -0.038562834 -0.019609857 -0.023302007 -0.0046505705 0.045456123 -0.035276186 0.044054057 -0.048166763 -0.0006537549 0.037258063 0.006071247 0.026038598 0.013159405 0.0005461946 -0.011891268 -0.023943484 0.015910175 -0.00883206 -0.042856526 0.046311293 0.0045946017
want -6.384775e-05 -0.004307963 -0.017225314 -0.0036837459 -0.03379464 -0.02533704 0.04715315 -0.014796663 -0.00992639 0.020451013 -0.04673643 -0.041225385 -0.04588324 -0.038781095 0.041594435 0.0027676336 -0.023004055 -0.008237064 -0.045774903 0.016452733 0.014352728 0.031999934 -0.0064653754 0.042200055 0.042185757 0.032616187 -0.042670906 -0.006340932 -0.043781497 0.016768146 -0.017222118 -0.0012388118 -0.023568988 0.022881877 -0.044881295 -0.03341253 -0.006541442 -0.006897282 0.011017241 0.040400673 -0.009349287 0.015391257 -0.035198532 0.030867849 -0.0009244196 -0.0062824115 0.019798744 0.046728563 0.013071705 -0.012625407 -0.0031393543 -0.04923905 -0.02583772 0.008461356 -3.838539e-05 -0.03965783 0.0017851815 0.023389462 -0.0430231 -0.048093226 0.027055833 -0.001391232 0.017646123 0.015253294 -0.0022132285 0.03884982 0.030057672 -0.034807026 0.022428762 -0.008983374 0.038572658 0.0027664192 -0.03124169 -0.0023850314 0.044814352 -0.032543197 -0.035541236 -0.0040066615 0.031785082 0.0076234825 0.04215007 -0.036452852 -0.01726805 0.025890421 0.01965468 -0.048443485 0.011818014 -0.048786987 -2.232939e-05 0.030654017 0.038328182 -0.012432121 0.0026476383 0.045549605 0.048516836 0.010113906 0.01726235 -0.046452142 -0.045296278 -0.040074777
been 0.0022964478 0.007206954 0.023020867 -0.018271066 -0.042351056 -0.016774844 0.0035936944 0.0011880882 0.0331632 -0.029004121 -0.009438038 -0.040377237 -0.04572407 0.028691057 0.022278044 -0.0324293 0.048976634 -0.043866742 0.023221795 0.014165167 0.04008663 -0.02968738 -0.047300994 0.0053705946 0.02352177 -0.041553795 0.02327324 -0.041414868 -0.01747737 0.01805276 -0.038878717 0.033087883 -0.01225704 0.034926716 -0.027404869 0.049107324 0.041097704 -0.028034234 0.04174796 -0.040818345 -0.00050326437 -0.023607982 0.030178431 -0.009722937 0.03283092 -0.027429426 0.029446568 -0.034096945 0.046021584 0.0036140308 -0.034056127 0.0017501339 -0.046270538 0.04271089 0.023363378 0.012935329 0.03819425 -0.007801853 0.006945897 0.01723596 0.011023521 -0.0037229173 0.0006900653 0.015444528 0.020986486 -0.020027626 1.3254583e-05 0.047694597 -0.022828449 0.028736006 -0.045975138 -0.037059892 -0.037884463 0.045773897 0.038564015 -0.03556038 -0.040739965 0.036055293 -0.015385129 -0.03802488 0.00519643 -0.021914173 0.0026791915 0.022094 0.008001447 -0.020446658 -0.03588692 -0.03682817 -0.021894027 -0.023411442 0.00034959242 0.022363696 -0.018387605 -0.014980294 0.01263335 -0.0016671196 -0.043893527 0.013032202 -0.01779785 -0.031647254
it's -0.002260197 0.02503923 0.007908929 -0.022076333 0.049155008 -0.04394853 -0.019040799 0.009725116 0.019667614 0.021283697 -0.0094659105 -0.025555862 0.028457586 -0.03866986 0.031817947 -0.010064721 -0.04595604 -0.011635959 -0.004559934 -0.00986594 -0.0009521246 -0.022077596 -0.034788154 -0.049882855 -0.021468354 0.018216718 0.027409945 0.046868805 -0.03568821 0.022830572 -0.045635402 -0.03875451 0.006263219 -0.043567218 -0.03722459 -0.03781972 0.041434336 0.025928501 -0.022785414 0.045917105 -0.035426628 -0.029168833 -0.009881102 0.04734658 -0.036501266 0.0013193488 0.043226887 -0.020226706 0.03155532 0.021818962 -0.021867514 -0.03925829 -0.0059729703 -0.0149077885 0.03833038 0.03843913 0.02294368 -0.026805187 -0.045597054 0.017727386 0.0404242 -0.048759606 -0.040537883 0.03176019 -0.007651616 -0.0063091293 0.04054382 -0.026579035 -0.0077490434 -0.035434224 -0.013260711 -0.048740435 0.009849597 0.0033664592 0.04075339 -0.015086472 0.010890089 -0.0022851005 -0.03120464 0.04176328 0.020632599 0.03620776 0.004868876 0.027845826 -0.029654408 -0.028148353 0.043201093 -0.026782667 0.00495423 -0.0035136566 -0.044941213 -0.043465473 -0.017473042 -0.016219497 -0.010326803 0.007561587 0.0017773509 -0.032075718 -0.021338714 -0.04298074
other -0.005675815 0.04076791 -0.018714808 -0.018732466 0.018162418 -0.02476064 -0.030267084 -0.046936836 0.047759067 -0.004142951 0.046057414 0.043516982 0.039262105 -0.04199003 -0.046674024 -0.0011124015 0.029056076 0.025105003 -0.005858194 -0.047306385 -0.016394448 -0.019948065 0.03193671 -0.046835113 -0.04090017 0.0115765445 -0.010806691 -0.018894171 0.03340305 0.037230004 0.022196878 -0.047495034 -0.03266611 -0.027890468 -0.000367105 -0.0338912 0.015686665 0.020091083 0.042971883 -0.013257064 -0.019406855 0.03491113 0.02672894 0.010973431 -0.009573698 0.036150564 0.00093609095 0.0042246208 -0.011056732 0.046461534 -0.044807374 -0.021300746 0.026598345 -0.0074102506 -0.029592073 0.005792238 0.0034961328 0.018268775 0.014766399 -0.017444957 0.013898682 0.043754447 0.015581418 0.008447863 0.0035931692 0.008560766 -0.024169434 -0.017978061 0.020206396 -0.014141642 0.026808035 0.03546487 0.03649615 -0.04693904 -0.006151937 -0.018122159 -0.00093053654 0.0076666474 0.0037108548 -0.03845916 -0.03719002 -0.015978526 0.044433523 -0.022701168 -0.03290291 -0.010520995 0.00482931 0.03435464 -0.03836297 -0.00010519102 0.02208687 0.021378983 0.023279954 -0.032258168 -0.045776796 -0.031118775 -0.031079555 0.020820443 -0.041130565 0.0050631873
locations -0.025801016 -0.0105896965 -0.04318601 0.0058901906 0.032494966 -0.042909455 0.019572426 0.01857109 -0.0444435 0.030754138 -0.025422597 -0.012172949 0.014136244 -0.0458946 0.016068768 -0.040407587 -0.025296628 -0.04469786 0.017666388 -0.02765584 -0.00060202926 0.012862179 0.027879093 -0.026181603 0.022605065 0.00022570044 0.040804293 -0.047137417 -0.029374529 -0.010370124 0.0068401583 0.011641312 -0.0008460656 0.041358892 0.0346432 -0.030115163 0.027634803 -0.042147327 -0.026125206 0.045039248 0.01708341 0.049858417 0.024839345 0.031059634 -0.03818375 -0.041032158 -0.009566091 0.018908832 0.010319959 -0.017444957 0.02410711 0.031017888 0.04115813 0.022107366 -0.03842484 -0.027922392 0.041848335 -0.044402864 0.049624514 0.038472418 0.034838986 -0.02473998 -0.029872084 -0.047743704 0.03492644 -0.045152843 -0.034743417 0.026937988 -0.03809885 0.004633736 -0.01807338 0.010010015 0.026278917 0.0024945512 0.024793815 -0.0012529381 0.033649076 0.04731867 0.017237816 0.046808112 0.016523648 0.0063021183 -0.01661576 -0.036415685 0.01959801 -0.030123472 -0.036558032 -0.008559845 -0.032953978 0.0061446056 -0.021350492 0.010367285 0.016601358 -0.006040059 -0.018424619 0.022782374 0.018998135 0.02248672 0.024964038 -0.037714135
nj 0.03523637 -0.044056155 0.021604452 0.027371649 -0.023785854 -0.0014960654 -0.03473859 -0.04728041 0.034387995 -0.007646419 -0.04140042 -0.030929958 0.02086747 0.033772085 -0.01825931 0.006589841 0.039251175 -0.03776294 0.013740633 -0.0011806116 -0.027405072 0.04111466 0.009783745 -0.047061052 -0.032729827 0.0034652948 -0.04394039 0.0069594495 -0.011016857 0.008932758 0.028449986 0.035534743 0.01349492 0.040977206 0.040275525 0.045470607 -0.032847155 -0.02633512 0.02290206 0.0104811415 0.022129264 0.029904436 0.035870973 0.027230691 0.04951376 -0.010109939 0.021637563 -0.040906977 -0.03041402 0.014702026 0.04513366 0.043554973 -0.027257074 -0.034547318 0.040056173 -0.034357715 -0.03374757 0.014470484 -0.04815482 0.007517576 0.016806815 -0.03306178 0.016908731 0.018196728 0.010248624 -0.04096496 -0.017046917 -0.0429652 0.017006647 -0.035786342 0.030798737 -0.034976948 -0.03631697 -0.043695677 0.010181438 0.03788692 0.040681686 0.015308771 0.020148922 0.025862087 0.027118634 0.019095127 0.026116323 0.02909578 -0.0057100654 0.029844109 0.03834131 0.038417686 -0.0013709553 -0.03441777 0.034193043 -0.027374899 -0.005566526 0.03609505 -0.04864296 0.022198748 -0.003115058 -0.011884235 -0.049271654 0.043449152
never -0.04592204 0.019651186 0.036780905 -0.0022257455 -0.044952717 -0.030757654 -0.022214008 -0.018484496 0.0054730177 -0.046016634 -0.047777414 0.019484345 0.0019744635 0.005024396 0.020271529 -0.0068865046 -0.014977634 -0.032484937 -0.004365325 0.0286468 0.027908172 -0.043980837 -0.04694561 0.031090025 0.032158557 0.026023831 -0.03665155 -0.04396063 0.007004928 0.0457705 -0.023342729 -0.0012830384 -0.00840652 -0.021639217 0.03025743 0.022695992 0.0087945685 0.014424253 0.035989795 -0.013472687 0.006240271 0.04539783 0.046336714 -0.036431767 -0.038984906 0.04515637 -0.0032949224 0.04553828 0.043462504 0.000617601 -0.0009853952 -0.015322637 0.0267579 0.015755404 0.046401825 -0.00054039806 0.032834698 -0.040831983 -0.03142195 -0.010830723 -0.026159216 -0.017957866 0.026179742 0.04513773 0.03571905 0.03219017 0.017806817 -0.011521507 0.0057861805 0.025666501 -0.0146224275 0.03283855 0.008043967 -0.044572044 0.04314703 -0.026303792 0.042113278 -0.0067373887 -0.01751529 0.017764125 0.000454437 0.04887222 -0.040593363 -0.024262166 0.01721115 -0.030638052 -0.025793135 -0.025685895 -0.02428242 0.0015250556 0.0427608 0.0370162 0.012197901 0.009695888 0.0059025176 -0.03948184 0.046896067 -0.005400121 -0.009334885 -0.00624286
bad 0.013681445 0.013801489 0.013871733 -0.0095567 0.013057377 0.01154251 0.011982489 -0.03869146 0.001588773 0.02345464 0.008053254 0.02507082 -0.020185828 0.023187686 -0.020215666 -0.038591515 0.010814261 0.04006313 0.047897104 0.046903435 0.01678374 -0.039712917 0.04163332 -0.007922184 0.040989686 -0.008048605 -0.036664058 0.0066119656 -0.042753875 -0.039488267 -0.028405488 0.03806467 -0.04220282 0.0037668124 -0.016361546 -0.041781366 0.04818562 -0.015700996 0.027377617 -0.003946185 -0.011160515 -0.043510593 -0.020139897 -0.032868482 0.01725867 -0.029509509 0.038677488 0.014044765 0.035716567 -0.013620805 0.019187186 0.012112211 -0.015745927 0.04854505 0.036265064 0.04342575 -0.017763983 0.023055341 0.03779458 0.037954833 0.013415936 -0.043097306 0.03869194 0.008796394 0.0063579082 0.004499186 0.0368389 0.008859493 0.047242273 -0.01646322 0.02339201 -0.0069581755 -0.036533974 0.020580065 0.012851309 0.009282269 0.02977984 -0.03365346 -0.014140688 0.04376686 0.021307062 -0.036459554 -0.017686844 -0.03154601 0.042485263 -0.013481498 0.0207122 -0.020539248 0.029383373 -0.04230062 0.011228204 0.046400797 0.013631452 -0.0112479925 -0.0056077726 0.021278355 0.02342024 -0.030696476 0.032559488 -0.041095577
experience 0.01604921 0.034711685 0.035620783 0.010031354 -0.017762136 0.0469221 -0.029971493 -0.0054193847 0.035489526 0.026157383 -0.016688157 -0.022071708 -0.020425344 -0.03778261 0.0057684295 0.0059627295 -0.027464855 -0.02535708 -0.0026204586 0.01859207 0.019000199 -0.025283456 -0.048545837 -0.01947068 0.010753918 0.012926135 -0.017412495 -0.028358782 0.023123596 -0.018919205 0.014329445 -0.0046751983 0.004607141 0.041854966 -0.045509327 -0.019831574 0.005231045 0.046999697 0.049194943 0.029533174 -0.023130406 0.00019282103 -0.019139195 -0.049684633 -0.001326181 -0.014338683 0.02840482 0.0077441446 -0.009452689 -0.037795115 0.044185568 0.0395162 -0.0077118985 0.038521018 -0.03255415 0.013106596 -0.038934648 -0.015355181 -0.0020999797 0.012595627 0.027980793 -0.03964337 -0.0032959096 0.039418552 0.04574016 0.024121832 -0.039022066 -0.0486385 0.040401462 0.03329793 0.04464109 -0.016999077 0.0048320293 -0.04712937 0.0050006397 -0.017552376 -0.04055505 0.029511098 0.006123256 0.04152714 -0.021636022 0.018766712 -0.00045286492 -0.0006165616 -0.0075655207 0.008959152 -0.049714234 0.01643825 0.016110186 0.00456959 -0.018857945 0.04545292 0.018543605 -0.0273929 0.047236238 0.03719059 0.03221265 0.00043907017 -0.030017972 -0.004700292
nthe 0.048828874 -0.034562983 -0.014574803 0.04661825 0.030408237 -0.0004023686 -0.019642223 -0.019864334 0.0026503094 0.006865144 0.0246482 0.0184342 0.034276415 -0.04971086 -0.01498444 0.043540824 -0.030493129 -0.018241443 -0.007319104 0.008050572 0.013957206 -0.04465909 -0.020698214 -0.043092825 -0.022648573 0.02982017 -0.020768905 0.00433426 -0.027745938 0.0056369677 -0.016350936 -0.005528938 -0.017540298 -0.028073026 0.04598799 -0.004666604 0.036270503 -0.03020599 0.021992717 0.038297866 -0.0071824677 -0.00769452 -0.030261338 -0.02801466 -0.027063275 -0.0031645298 -0.008062027 -0.034876954 0.04076555 -0.019808805 -0.018042289 -0.0011394843 0.039257858 0.0498488 -0.018455662 0.015060734 0.00047945976 -0.037112843 0.02194238 -0.008291852 0.029267851 0.044169318 0.038149368 0.04117967 -0.04021014 -0.04987825 0.03249861 -0.0039373636 0.007512916 -0.030075325 0.015073288 0.0315251 0.032406602 -0.0094954 0.02030721 0.0007190332 -0.0215958 0.003340222 -0.018619131 0.020491313 -0.00035613775 -0.01776538 0.013137016 0.039389912 -0.033860326 0.04957879 0.0367746 -0.040762007 0.023081724 0.04492631 0.03509127 -0.024139691 0.049799528 -0.01941309 0.044238377 -0.0054476634 -0.020563055 -0.029002333 -0.0037427433 -0.03487754
food 0.045421172 -0.0026483536 0.026974525 0.016407523 0.02608217 -0.046872377 0.029088628 0.014023963 -0.034325898 -0.048737433 0.03883526 -0.041141797 -0.048723616 -0.0076577887 0.037005458 -0.020695651 -0.0114172585 0.039463412 0.0024472475 0.015543532 0.030131746 -0.0070359 -0.022237826 -0.029181505 0.012682702 -0.024880528 -0.008263253 0.004191138 0.006631244 -0.030908097 -0.006249726 0.017010953 0.02663653 0.04697304 -0.027886344 -0.032751597 -0.04811206 -0.04010086 0.00029549748 0.016689148 0.018926833 -0.027258372 0.02710471 0.02692436 -0.045958962 -0.0066975355 -0.014030255 0.035666946 -0.0036998503 -0.0008272156 -0.013022374 -0.0052612536 -0.041110612 -0.023891306 0.0010180473 -0.023072993 -0.048685458 0.036128525 0.0060898773 0.014829602 0.026823927 -0.028565919 -0.044787336 -0.010355033 0.0067510493 -0.0017992258 -0.03295102 -0.019778097 -0.037606142 -0.04131621 -0.009109031 -0.01043706 -0.031260848 -0.026136411 -0.03965813 0.022710215 -0.016197324 0.025849793 -0.047275245 -0.01382222 -0.016319584 -0.03296455 -0.025566816 -0.014394343 0.042257 0.0019411221 -0.006137587 -0.029332126 0.038676906 -0.021041859 -0.025112165 0.012543488 0.039937805 -0.030574858 0.012341224 0.00084106997 0.048231456 0.033471074 0.013763513 -0.019613493
good 0.037650418 -0.023933649 0.04178873 0.04624195 0.0031573065 0.04720891 0.012390483 0.037787843 -0.0119479075 0.023789559 0.01826847 -0.04759599 -0.044774093 -0.004835129 -0.04149846 -0.03795557 0.03861438 0.02753416 -0.00019227341 0.019990053 -0.0449947 -0.007659197 -0.043225467 0.035176802 0.030474018 0.042225454 -0.036235593 -0.037477564 0.03610238 -0.0365551 0.040646467 0.04250263 -0.025150467 0.032783244 0.03453597 -0.011646904 -0.0043653958 0.023656618 -0.014875591 0.008041702 -0.03534899 0.0370957 -0.038007807 0.00874909 0.033851113 -0.0018486008 -0.035003565 -0.0021169074 0.027170148 -0.019605327 -0.030461788 -0.026750231 0.012686264 0.0359802 0.013467874 0.03475206 0.042172734 0.018507432 0.04675791 -0.04021579 0.018753912 -0.038895644 -0.030322408 0.049343016 -0.029156959 0.005623579 -0.039076556 0.041310836 0.026606593 0.0465844 0.04047619 0.037700985 -0.04587791 -0.020855833 0.0254354 0.047566842 0.028107118 -0.0299497 -0.019464815 0.049949083 0.036807645 -0.032558907 -0.028572215 0.012268305 0.02443887 -0.0030567423 0.030458186 -0.039373923 -0.026155805 0.012836847 0.026559722 0.031355087 0.019707058 -0.028111612 0.01588079 -0.009331774 -0.044616986 -0.0075081363 -0.023628592 -0.041546308
takes -0.0041656494 -0.030695248 0.00059821457 -0.03846679 0.04695965 -0.009682883 -2.5916845e-05 -0.031561792 -0.0114851 0.030307207 -0.0089208 -0.039377976 -0.026103115 0.012283482 -0.049751904 0.045258407 -0.029948354 0.028984059 0.0193079 0.03580046 0.03835583 0.016920637 -0.0016759634 0.049496386 0.033563975 0.013604667 -0.010387529 -0.010590948 0.006192088 0.0018596873 0.040169265 -0.02168033 -0.017585814 -0.03134562 0.0047089234 0.009994257 -0.049096692 -0.0009843595 0.03955582 0.043890964 0.009711493 0.031151023 0.036075268 0.03673545 0.012547802 0.04204228 0.029412936 0.02248365 -0.0037609711 -0.020105375 0.031401765 0.0074111708 0.03524233 -0.01797371 -0.049973417 -0.0114022605 -0.010400068 0.005953133 0.011863232 -0.039849855 -0.04162965 0.041894946 -0.015603088 -0.012677573 0.00322745 0.034170832 -0.035218418 0.047148827 -0.04531336 0.0006307475 -0.015232764 0.011197269 0.010094464 0.023373608 0.016485702 0.0025840774 0.043472458 0.010811962 0.04609963 0.0047137514 0.02800605 0.015933026 -0.0268664 -0.03083681 -0.043672334 -0.02486713 -0.007992972 0.022446897 0.0051396005 -0.034336198 -0.014708519 0.01936913 -0.010296844 0.008164667 -0.028083576 0.0478114 0.045532178 -0.023553908 0.046115827 0.037160624
time -0.03803339 -0.015461922 0.0027178302 -0.009920478 0.027828548 0.033341076 -0.034606446 -0.034453534 0.012024678 0.042248953 0.040121082 0.047272872 0.02530558 -0.02416495 -0.02952608 0.029634748 0.008550167 0.010973621 0.0015306249 0.031126406 -0.00806563 0.042804454 0.016068544 0.022183288 0.02577405 0.040782917 -0.021950722 -0.026068985 0.023522828 0.02578951 0.03156281 -0.014962472 -0.012006938 0.023925137 -0.00656233 -0.017731298 0.023255896 0.0015087351 -0.0016350523 0.011967637 -0.04770949 -0.010460485 -0.0107258335 -0.046748053 0.00059397146 0.049654316 -0.013535809 -0.018602919 0.03918219 -0.035515152 0.03826389 -0.0005894676 -0.040996335 -0.0069254152 -0.0033067837 -0.04384712 -0.046932638 0.009026814 0.010801982 -0.0033791065 -0.029103352 0.015979443 -0.006868828 0.03558905 0.012005042 -0.003633894 -0.022732794 -0.043516397 -0.047054876 -0.023236096 -0.0040415525 -0.045694876 0.02258816 -0.013611555 0.009869229 0.040079582 -0.027313555 0.013480987 0.01684798 0.0059760697 -0.04371828 0.041479457 0.017208945 -0.04024303 -0.03455005 0.004268419 -0.049011923 -0.032164335 -0.015728664 -0.036868237 -0.0031114332 -0.007104147 -0.00059510395 -0.040103305 0.030251648 0.016248312 0.02417535 -0.04935515 0.04559237 -0.041223813
come 0.048529577 -0.0025867 0.020350743 -0.0029168949 -0.03869418 0.02856202 0.04761708 -0.026859319 0.021889154 -0.025167262 -0.0336275 0.033320572 -0.025154496 -0.044948578 0.030795012 -0.0022989511 0.04402561 -0.0041491985 -0.028051043 0.03312855 0.048518527 -0.0048896447 0.022187661 -0.040481437 -0.03027953 0.018733446 -0.006565951 -0.035092782 -0.021539306 -0.009298135 0.01760671 0.0057276376 -0.04953561 -0.0430364 0.029790726 -0.0023660287 0.027723383 -0.042669144 0.009936344 0.034707 -0.02953663 -0.019805504 0.00880865 -0.024345899 0.0044980757 -0.033045307 0.026309583 -0.022163033 0.028264258 0.019266631 0.042934928 0.03524143 0.005986154 0.038408447 -0.011568271 -0.001752831 0.031664107 -0.039932705 0.03975537 -0.010784138 -0.022690106 0.012573089 -0.010585498 0.044838022 0.016740296 0.04629476 0.033136677 -0.0042804256 0.030315194 -0.005402945 0.023356352 0.0011331327 0.0006872304 0.008761872 0.041468505 -0.016062997 -0.023185968 -0.015288841 -0.024080528 0.018721018 -0.038747 -0.016019117 -0.03836093 -0.040093172 -0.0016315579 -0.0061587803 0.038007405 0.013376068 -0.027510226 -0.02220875 0.0318746 0.01792873 0.04217012 -0.025569081 0.031504523 -0.020716632 -0.012392342 -0.03547703 -0.005559884 0.046171654
waitstaff -0.00609944 -0.0062396154 -0.035709344 0.039102387 -0.013981212 -0.029101992 0.0124163255 0.034438018 0.04324924 -0.015239049 -0.045220435 -0.026457537 0.039063822 -0.03508071 -0.013359271 -0.034958996 -0.008720063 0.044155348 0.043702874 -0.039448213 0.019102704 -0.042711105 0.04079217 -0.040804576 -0.04020984 0.03872249 0.043521594 0.03175639 -0.011673547 0.0052455887 -0.012658678 0.03565463 0.045694184 -0.030865038 0.03386991 -0.034988962 -0.043854892 0.045246575 -0.006620597 0.018604029 0.024139833 -0.039923884 -0.030034065 0.02669419 -0.028581357 -0.02256987 -0.013728034 0.033411745 -0.027084697 -0.009005882 0.012789931 -0.04111264 -0.049686123 0.01064036 0.017879214 0.018942919 0.004388105 0.029550109 -0.046285417 0.033290256 -0.024550546 0.021394875 -0.011648405 0.01887444 0.0024744384 0.03125001 -0.003638707 -0.029979408 -0.03380169 0.0031749718 -0.041475464 0.0065036193 -0.041279756 0.024481442 0.004045807 -0.03863262 0.048511278 0.026047315 0.01173532 -0.045473076 -0.030070497 -0.011387002 -0.029845107 -0.046151508 0.011410523 0.04889406 0.026152994 -0.00053840876 -0.018561803 0.016203377 0.046266127 0.045038227 -0.001422286 -0.040067602 -0.01483934 0.032609668 -0.0074876323 -0.046601202 0.039676223 0.03762355
young 0.032467376 0.037764635 -0.029699696 -0.020510554 -0.043287065 -0.0109088905 0.026688386 0.04056591 -0.019509519 -0.0121869445 -0.0067649856 -0.018762732 -0.0073495507 -0.01021396 -0.0074165687 -0.011692356 0.010986544 -0.0062469468 0.025146548 -0.00221622 -0.04546429 -0.026458789 0.018150974 0.046432603 0.017266873 -0.03177712 0.03732678 -0.045757856 -0.030126298 -0.04682082 0.014506947 -0.046246972 0.010828126 0.04939573 0.04186148 0.04715513 0.019804742 0.0031139143 -0.010579716 -0.033960868 -0.01766343 -0.012157522 -0.036023162 0.013870571 -0.017079126 0.034017812 0.01341996 0.029065859 0.010315083 0.04867016 0.01110214 -0.028228117 -0.009960271 -0.04350984 0.03922483 -0.0376258 0.0016363971 0.024275783 -0.033385504 -0.0421108 -0.043551695 0.004596282 0.048674736 -0.040586032 0.031495426 -0.04365759 0.027947973 -0.032779478 0.03421736 -0.047031105 -0.020894969 0.016701702 0.020519618 0.03331082 0.0021564476 0.004805278 0.012605641 0.005597912 0.0065872893 0.03196868 0.006033968 -0.01790335 0.015416753 -0.011963524 0.019427706 0.0060858727 -0.03783971 0.001269184 0.024504814 0.04251397 -0.021454573 0.003910411 0.04875833 0.01803359 -0.031094838 0.03743205 -0.045959868 -0.026858509 0.042439368 -0.04062431
pleasant -0.04527681 0.047997538 -0.017807733 0.041877534 0.028401759 0.01706696 0.001086045 0.045690093 0.048954967 -0.040158726 0.04591075 -0.020036042 -0.033638917 0.0480528 -0.048752178 0.0039403215 0.04290397 -0.03742658 -0.04671253 0.011800934 0.0020264164 0.02193356 0.015961085 -0.009361781 -0.04000956 -0.0092090145 0.02537984 -0.0049282424 0.02047589 -0.045820773 0.01328722 -0.0392074 -0.008679438 0.045639183 0.0017438158 -0.03302522 0.017790709 0.016287688 0.02368908 -0.0051046982 -0.035134364 0.043193366 0.037078444 -0.038799655 -0.03844433 0.02559023 -0.044069935 0.021577407 0.0031561628 0.029468302 0.017326523 0.036523845 0.01080922 -0.045582592 -0.043231394 0.021027472 -0.0007567182 -0.008408211 -0.0018107407 0.020479832 -0.0020087138 0.043216083 0.04551405 0.03959172 -0.026202012 -0.049681474 -0.013187565 -0.04559585 -0.0379524 -0.04220121 0.015546028 0.010928333 -0.011517562 -0.028884972 0.029560018 -0.04011842 -0.009228729 0.022612896 0.04631486 0.046200264 0.033629324 0.012199916 -0.049755465 -0.009540509 -0.018652856 0.011582721 0.043195043 -0.03827249 -0.02037406 -0.048414685 0.026582647 -0.027700031 0.011976279 0.016274486 0.01292013 -0.028330898 -0.023026897 0.042026196 0.03931557 0.02256221
experiences -0.011709679 0.0049412623 -0.046180308 0.015745055 0.026862528 0.0029032826 -0.04824468 0.022976723 0.0021703616 -0.020964945 -0.03613956 -0.030873299 -0.04415777 -0.023154473 0.025507975 0.049977828 0.0011399612 0.026727702 0.03943077 0.034566287 0.033634666 -0.020112073 -0.014454484 0.005524289 -0.02197125 0.0102972165 0.008569766 0.02820542 0.010006368 0.007077288 0.017284025 -0.009110771 -0.034557104 -0.03910073 -0.024841417 -0.047084082 -0.046141207 -0.0078168735 -0.0009960048 -0.0070011728 -0.019669319 0.046184886 0.024941806 -0.022993399 -0.02249899 0.042282496 -0.049660075 0.0077333674 -0.048723366 0.004244305 -0.021838952 -0.034100607 -0.0032979473 -0.0038911216 -0.03568262 0.018484663 0.025906328 4.84474e-05 0.042716954 -0.04033339 -0.014128529 0.039332066 0.049755458 -0.042526938 -0.038030565 -0.015420567 -0.029982949 -0.03212409 -0.03705106 -0.044051398 -0.049203563 -0.039860927 -0.01633545 0.01629914 -0.030598462 -0.027581263 0.023597095 -0.012796164 0.022630904 0.031069625 -0.038153432 -0.020524943 0.010496508 -0.014970422 -0.045392215 0.017466437 0.041497413 -0.049883187 0.017171238 -0.027894378 -0.039736845 0.039114837 -0.025368048 -0.04456676 0.002380453 -0.016675927 -0.044743575 0.019599412 0.001974631 -0.04880351
where -0.030182077 -0.031849876 0.012839589 0.045768883 0.019103084 0.008306015 -0.04373182 -0.041327238 -0.021936953 -0.0173298 0.010642849 -0.030483915 0.045535136 -0.049245298 0.025762048 -0.0008386858 0.04541273 -0.005611442 -0.03728666 0.011433341 -0.0052025095 0.04183053 0.03446425 0.029646907 0.026567709 -0.04803716 0.003939163 -0.021277798 -0.03912077 -0.02181176 0.022306088 0.019348156 -0.04712981 -0.046109892 0.00043597072 0.046379436 -0.03208927 -0.018144011 -0.010926951 -0.046462156 0.028753769 -0.0166265 -0.007040344 0.032745313 0.035963606 -0.030586231 0.0328681 0.018288005 -0.03142165 -0.0018007755 0.047534 0.040617358 -0.03975308 0.03568505 0.03694309 -0.0019993186 -0.037711024 -0.023378385 -0.048925377 0.02491701 0.016458068 0.008823205 0.016482618 0.029220011 -0.034843218 -0.019776225 0.027944569 0.038292263 -0.03533734 0.047069896 -0.012221433 0.03752308 -0.03103056 0.0011916868 0.048307132 -0.005097449 0.04760133 0.022473719 0.037215654 0.00034507364 0.023440663 -0.03788929 0.01259755 -0.035398506 -0.041674484 -0.022010922 0.04196011 -0.016307782 0.0012245663 -0.002704464 0.028481629 0.03322235 0.03689805 -0.004331339 0.0039738417 -0.025171353 -0.0051316246 -0.033882655 0.021870743 0.0429495
spent 0.032403085 -0.049099017 0.04720665 -0.035810877 0.048926044 -0.0044133775 0.02703711 0.048345257 -0.0021884218 0.03943399 0.0042531863 0.043891523 0.04654299 0.0362649 0.006523084 -0.03725382 0.0034496896 -0.041046392 0.032419357 -0.040055156 0.0028204694 0.034503054 0.036210824 0.041312184 0.016593907 -0.048506882 -0.046085563 0.01177467 0.04114714 -0.03651012 0.03480127 0.007038284 -0.036480345 -0.037339915 -0.0014464371 -0.04586513 -0.036896966 0.0067090504 -0.012683891 -0.015776325 -0.0069574714 0.00729686 0.049724687 0.028083596 0.02608129 -0.026060104 0.03786463 0.0048626177 -0.011547554 0.029866401 -0.0044819824 -0.010828603 0.03714815 0.027220774 0.018236544 -0.04248934 -0.0006176941 0.0052911043 0.012079872 -0.032817006 0.009234082 0.015817646 -0.006853819 0.0024375096 -0.04918461 -0.013220858 0.023536298 -0.04282223 -0.04008583 -0.011109758 0.02908777 0.03063624 0.020799968 0.025520649 0.028378729 -0.007722199 -0.017091166 0.03967848 0.033905316 0.03106049 -0.026756668 -0.037677146 -0.032554947 0.00069642067 -0.025931597 -0.044452168 0.019969415 -0.014015138 0.039505485 0.04224396 -0.022510206 -0.044315804 -0.04249947 0.0010720603 0.031593982 -0.025635159 -0.040775668 0.035161283 0.020009998 0.013074819
waiting 0.002180837 0.010899674 0.025768448 -0.0063690767 0.0233276 -0.030960346 0.020438682 -0.038018655 0.008318044 -0.011993062 0.049765836 -0.009673011 0.0015868768 -0.017278172 -0.030220497 0.046312425 -0.01109159 0.04201306 0.00694995 0.02195574 -0.047502972 0.017028999 -0.0012743585 -0.04917686 0.030483332 0.04031286 -0.020170463 -0.033596814 0.000993859 -0.012949001 -0.04304086 0.017658863 0.03233758 0.004941128 0.033398975 0.02110776 -0.017673243 -0.023325516 0.03230885 -0.04491402 -0.0063179955 0.03322122 0.001480259 -0.030421663 0.016223956 0.03534795 -0.016128182 -0.03982856 -0.025933182 -0.03118968 0.0032802112 0.046089005 0.023854885 -0.012856949 -0.032163218 -0.046291746 0.015196633 -0.042853225 -0.012107443 0.0075140707 -0.03519585 0.008562814 -0.013677429 0.018595163 -0.022297813 -0.01949736 -0.021828746 0.041526686 0.0149311535 0.013774123 -0.0321363 0.013072345 -0.031100381 0.04482745 -0.04259012 -0.029556716 -0.043368757 -0.00062391907 -0.026500953 0.02727082 -0.043456532 -0.03649025 -0.03239906 -0.039227568 -0.008881103 0.029584397 -0.0487476 0.026788924 0.017160628 -0.049409032 0.02229527 0.014659513 0.0018862262 -0.03647981 -0.006040573 -0.036934815 0.00079314783 -0.049284793 0.01003287 0.030773465
opt 0.03871647 0.03478023 0.024526563 -0.0028355494 0.03646971 0.03393102 -0.012665249 0.02527937 0.03908897 0.035147462 -0.012037694 -0.034194052 -0.028871357 0.034141567 0.00917349 0.025490787 0.02975161 -0.036502123 -0.018692218 -0.0075133555 -0.046228673 0.00220263 0.028470222 0.027903948 -0.013308991 -0.0008948557 0.04868107 0.024922814 0.044631127 -0.049199153 -0.0035855286 -0.038994312 -0.012304295 -0.037042715 0.037940193 0.033879507 0.0029363036 -0.014330041 -0.01981622 -0.035372294 0.026291166 -0.019530142 -0.034540497 -0.013443269 0.019701589 0.006090034 0.021336544 -0.011259116 0.00049154833 0.007077597 -0.01870539 -0.039248504 0.04619317 0.043196585 0.03959373 -0.011509098 -0.016063057 -0.007386159 -0.032779776 0.04318888 -0.011275042 0.04285005 -0.0015464053 -0.02930559 -0.019776333 0.0243229 -0.02287978 -0.01796186 -0.032222558 -0.007343568 -0.0032830127 0.015884433 0.043559287 0.015361521 -0.035149895 0.014090147 0.007275343 -0.01920718 0.03964353 0.0019719973 0.037611905 -0.029216398 -0.009387277 -0.027231384 -0.022529352 -0.019922484 -0.025444556 -0.022513032 0.045863 -0.027419174 -0.0076055303 0.013564635 -0.0062892325 0.04676273 -0.033959284 -0.022209108 -0.03646016 -0.013689686 -0.035341144 -0.04583788
another 0.035241235 -0.013509966 -0.04923613 -0.03827833 -0.049259126 -0.01173272 -0.011943854 0.040845487 -0.025665272 0.009058811 -0.020802772 0.03383508 -0.045927573 -0.037003625 0.019043054 -0.0041672587 0.00071481615 -0.0011563897 0.01838005 -0.006244041 -0.020692874 -0.009082735 0.015493918 -0.0037136301 -0.021292472 -0.013152517 -0.002047468 0.028101254 -0.020818187 -0.00779406 -0.03393866 0.03538872 0.011027776 -0.047083843 0.047247175 -0.015159417 -0.024744822 0.038945023 0.00867499 -0.03686744 -0.013403583 -0.031135416 0.014104236 -0.01838807 -0.026368214 -0.0022711046 -0.048561204 0.004540205 -0.016476475 0.039237607 -0.026647687 -0.024792744 0.030673336 0.045199227 0.016178202 0.019658063 0.006869614 0.021365058 -0.0019614212 0.046968255 -0.042505957 -0.033878554 0.04026449 0.038903985 0.031608794 -0.013664056 -0.04088533 0.034521986 0.0026247874 0.0010640025 0.03395653 -0.044112887 -0.019489372 0.0017524362 -0.045535363 0.031733427 -0.004257679 0.017555658 -0.014994383 0.027700197 0.014158081 0.0033525936 -0.016626716 0.016251717 0.038360905 0.049760405 -0.036430575 -0.0020132773 0.027901795 -0.03573227 -0.044537928 0.043621708 0.03912205 -0.035485577 0.02675822 -0.014558993 -0.042509045 0.012104273 0.03498337 -0.021572411
